apple -0.055639 0.009558 -0.069005 0.049733 -0.113764 -0.019272 0.043516 0.030462 0.00101 -0.013677 -0.105061 0.08206 0.080195 -0.088276 -0.022224 -0.009403 0.102574 -0.024711 -0.009752 -0.053463 -0.018339 0.009713 0.001758 -0.040408 -0.004585 0.05595 0.030151 0.100709 -0.002487 -0.001083 0.011578 0.03559 -0.039476 0.041341 -0.010257 -0.050976 0.024089 0.021447 0.129928 0.07118 0.050976 0.011578 -0.05222 -0.111899 0.014298 0.020204 -0.036678 0.099466 -0.008936 -0.029374 0.019038 0.005012 -0.036678 0.069626 -0.018417 0.065896 -0.032948 -0.065896 -0.022535 -0.023779 0.043206 0.057504 -0.079573 -0.010413 -0.031083 -0.024867 0.002331 0.07864 -0.05595 0.003866 -0.079262 -0.017873 0.013055 -0.050666 -0.010646 -0.002322 -0.035435 -0.064653 0.032016 -0.040408 -0.022069 -0.003264 -0.057815 -0.049111 -0.025177 -0.129928 0.102574 0.092628 -0.08579 -0.051287 -0.09325 0.037455 -0.05222 -0.038699 0.040408 -0.100088 -0.00847 0.025799 0.037766 0.026421 0.009791 -0.024556 -0.066518 0.040719 0.018728 -0.049422 -0.022224 0.032793 0.01492 -0.145469 -0.115008 -0.000159 0.075532 -0.001525 0.044449 -0.018417 -0.076154 -0.138631 -0.026887 0.010957 -0.015697 -0.049111 -0.105683 -0.069005 0.052531 -0.035901 -0.046314 0.050976 -0.114386 0.025799 -0.038388 -0.014221 -0.071802 -0.018028 -0.025177 0.003555 0.007033 -0.007266 -0.017717 -0.053152 0.005595 -0.044449 -0.080195 -0.114386 0.070248 -0.017018 0.102574 -0.060923 -0.182769 -0.050355 -0.01865 -0.069315 -0.041651 -0.014687 -0.080816 0.011501 -0.050355 -0.044449 -0.014998 0.077708 -0.105061 -0.058126 -0.028286 -0.003555 -0.030928 -0.04849 0.101953 0.006838 -0.001603 0.020359 -0.02984 -0.054085 -0.025177 -0.047868 -0.055328 0.03357 0.081438 -0.030617 -0.008043 -0.034036 -0.076775 -0.02611 0.018728 -0.087655 0.070559 0.019505 0.005945 0.092628 -0.027509 -0.022069 0.004313 0.056261 -0.016163 -0.066518 -0.043827 0.046625 -0.098844 -0.072735 -0.049111 0.011889 0.003011 -0.077397 0.04476 0.096358 -0.000738 0.053463 0.042584 -0.035279 -0.079573 0.007732 0.015697 0.058747 -0.005323 0.029529 -0.055017 -0.012744 0.021292 0.039786 -0.067761 -0.120603 -0.116251 0.116873 0.028752 0.073667 -0.043206 0.037455 -0.01492 0.008936 0.051909 0.028907 -0.133036 -0.059991 -0.073045 -0.117494 0.045071 -0.004507 0.047246 -0.058436 0.034658 0.025488 0.075843 -0.004837 -0.005129 -0.140496 0.014065 -0.057504 -0.060301 -0.001098 -0.031705 -0.043206 -0.142983 0.06714 0.010646 0.052841 0.049422 0.06372 0.057193 0.017096 -0.061545 0.098844 0.093871 0.008626 0.008004 0.079573 -0.018417 0.066207 -0.111899 -0.040408 0.032482 -0.091385 0.0373 0.045071 0.023002 -0.010724 0.068072 -0.011268 0.099466 -0.034191 -0.041341 0.00847 -0.040097 0.103818 0.009442 0.096358 0.038232 -0.036989 0.017484 0.003672 0.019893 0.096358 0.042895 -0.029374 0.010724 -0.050666 0.110034 -0.021447 -0.077708 -0.005712 -0.033881 0.08206
aquarium 0.007392 0.082959 -0.064741 0.013313 -0.026765 0.056053 0.067264 0.059416 -0.024663 -0.001244 0.011701 -0.100896 -0.019759 -0.110425 -0.082398 -0.049887 -0.028027 -0.041199 -0.018918 0.060537 0.119954 0.024944 -0.005991 -0.005395 -0.028727 -0.012682 -0.042881 0.127801 0.046524 -0.061939 -0.08464 0.048486 -0.087443 0.051289 -0.002522 -0.092488 -0.006236 0.079595 0.015765 -0.034613 -0.018077 0.062779 -0.039798 0.091367 -0.040919 -0.071187 0.069506 -0.004186 0.01086 0.051008 -0.030129 0.035173 0.086322 -0.081277 -0.040358 0.006481 -0.047645 -0.000451 0.079035 -0.02144 -0.013313 -0.065022 -0.021721 -0.027046 0.032511 -0.082398 -0.064461 -0.011561 -0.015905 -0.075672 0.017587 0.025784 -0.032931 0.06306 -0.163675 -0.007042 0.014924 -0.072309 0.024663 -0.098093 -0.014854 -0.04176 -0.056614 -0.017026 -0.038677 0.132846 -0.037275 -0.080156 -0.018778 -0.044562 0.060257 0.044002 -0.099214 0.027606 -0.045123 0.045123 0.009809 0.046244 0.055773 0.094169 0.058295 0.061658 0.041479 -0.015204 -0.014994 0.01072 0.09473 -0.11659 -0.026205 -0.097532 -0.014294 -0.016466 0.006902 0.103138 0.050448 -0.005675 0.019198 -0.041199 0.023122 0.053531 -0.029988 -0.080156 0.030969 0.088564 -0.033632 0.021721 0.079035 0.020179 0.03167 0.026765 0.012192 0.068945 -0.001664 0.056614 -0.034893 -0.009599 -0.059697 -0.02144 -0.071468 0.114909 -0.063901 -0.007112 -0.047645 0.008548 0.033352 0.062499 0.08464 0.112667 -0.03209 -0.028447 0.086322 0.033352 -0.132846 0.068945 0.015975 -0.004484 0.059977 -0.083519 -0.014083 0.076232 0.119954 0.017447 0.049607 0.051289 0.029428 -0.018778 0.03125 0.011981 -0.029148 0.071748 -0.061378 -0.035594 -0.013663 0.074551 -0.133406 0.036154 -0.00233 0.038957 0.040358 0.081277 -0.089124 -0.0206 0.011 -0.071187 0.06362 -0.022421 0.007672 0.02144 0.039798 0.072869 -0.068945 -0.038957 -0.047925 0.004257 -0.030829 0.024103 -0.018638 -0.032791 -0.117712 -0.060257 -0.036435 -0.004064 -0.09473 -0.012752 0.022982 -0.095851 0.078474 -0.035874 0.005605 -0.036715 -0.117712 0.043161 0.017867 -0.011351 -0.008968 0.095851 0.077914 -0.006481 0.06306 0.014504 0.057735 0.037275 -0.012612 -0.036154 0.012472 0.001296 -0.039517 0.108743 -0.069506 0.012051 0.034753 -0.045964 -0.069786 -0.113788 0.060537 -0.03125 0.133967 0.038116 0.043721 -0.025504 0.03195 -0.036154 -0.068385 -0.023963 -0.072869 0.009319 -0.062219 0.023963 0.036435 -0.019198 -0.117151 -0.054652 0.100896 -0.020459 -0.061939 -0.034192 0.027466 -0.001165 -0.151343 0.022421 -0.025084 0.000705 -0.045123 0.160312 0.016956 0.013943 0.003538 -0.069226 -0.004134 0.024804 0.002995 -0.050168 -0.055493 0.033492 0.10594 -0.016255 -0.086882 0.094169 0.03167 -0.089124 0.01016 0.008373 0.066983 0.108183 -0.007567 -0.008863 -0.006972 -0.0206 0.123317 0.080716 -0.023682 -0.045403 -0.067824 -0.023402 0.023682 -0.013313 -0.012892 0.054372 -0.003276 0.024243
baby 0.01163 0.028615 -0.042504 -8e-05 -0.00159 -0.022256 0.019662 -0.037986 0.008743 0.017822 0.079318 -0.141903 0.019662 0.020834 -0.099734 0.01255 -0.072625 0.036982 -0.099064 0.010793 0.024264 -0.037818 0.078649 0.00866 0.03146 -0.0415 -0.03581 0.011965 0.07229 -0.142572 -0.020248 -0.010166 -0.084339 -0.061246 -0.070617 0.050202 0.101072 -0.057899 -0.075972 -0.01732 -0.053548 -0.019579 0.066266 -0.022758 0.055891 -0.011965 0.033133 0.090363 0.004058 0.048193 0.003702 0.019913 -0.023929 0.047189 0.058234 -0.035308 -0.044177 -0.011463 0.121822 0.054552 -0.047189 0.004225 -0.003953 0.038655 0.13454 0.004434 -0.039994 0.032631 0.01732 0.053214 0.065262 0.030958 -0.089693 0.060911 -0.135879 0.190096 -0.006986 0.001229 -0.006526 0.059907 0.043843 -0.00615 -0.005857 -0.053548 -0.094379 -0.074968 0.10375 0.06727 0.048193 0.059572 0.01665 -0.019913 -0.05154 -0.085677 -0.078649 0.056226 0.059238 0.001883 0.083669 0.039492 -0.001506 -0.055556 0.087685 -0.058903 -0.04652 -0.121822 0.061915 -0.0105 0.010333 0.017236 0.008911 0.00548 0.067939 -0.016148 -0.062919 -0.016232 -0.039659 0.010877 -0.100403 0.007237 -0.022758 -0.039994 -0.075637 -0.050871 0.017654 0.05154 0.045851 -0.002615 -0.022256 0.049532 0.013722 -0.004581 -0.014642 0.023093 -0.034137 0.036982 0.03899 0.037651 0.060577 0.033802 0.089693 -0.059572 -0.004288 -0.054552 -0.032296 0.153951 -0.00364 0.151274 -0.107097 -0.026439 0.153951 -0.027611 -0.100403 0.017822 0.057564 0.0333 -0.061246 -0.053883 -0.008492 -0.006526 -0.083669 -0.012801 0.071956 0.011212 -0.053883 -0.105089 0.007823 0.065931 -0.034137 -0.003493 -0.013805 -0.063923 0.029117 -0.029117 -0.044512 -0.006275 0.179387 0.107097 -0.046855 0.032129 -0.074298 -0.067605 0.075637 -0.054552 -0.01322 0.069613 -0.055556 0.050536 -0.030958 0.031962 0.009496 -0.022256 -0.000988 0.035978 0.095718 0.128516 -0.043843 -0.091032 -0.053548 -0.074298 -0.107097 -0.068609 -0.085677 -0.066935 -0.013889 -0.016064 -0.022925 -0.0415 0.087685 -0.050536 -0.085008 0.083 -0.010877 0.015981 -0.004414 0.062585 0.089693 -0.058234 0.011212 -0.02895 0.041835 -0.000285 0.089024 -0.015395 0.054887 -0.083669 -0.074968 -0.036145 -0.035308 0.016985 -0.03832 0.016148 -0.048528 -0.020081 0.002081 -0.002374 -0.01732 -0.050871 0.084673 0.081996 -0.027109 -0.055222 -0.033133 -0.026272 0.011463 0.074298 -0.030456 0.048863 0.010375 -0.036814 -0.009831 -0.029117 0.010249 0.031962 0.05221 0.079988 -0.036647 0.039325 0.023929 -0.073294 -0.031292 -0.001496 -0.05221 0.057564 -0.039659 0.041667 -0.071956 -0.068609 -0.117806 0.027946 -0.05154 0.028615 0.058234 0.026941 0.070617 -0.065931 0.033133 0.041667 0.032296 -0.062919 0.05154 -0.002615 0.0333 0.058568 -0.022758 0.003535 -0.043843 -0.062585 -0.011044 0.147258 -0.02895 -0.021001 -0.025435 -0.014307 0.008325 0.020583 0.024431 0.016734 -0.097056 0.033635
bear -0.012331 -0.005145 -0.071434 0.072454 0.023811 -0.044561 0.120417 0.038268 0.093884 0.019814 0.018709 -0.015562 -0.005039 0.023471 -0.070413 -0.01012 -0.065991 -0.043881 -0.08436 -0.140146 -0.04235 -0.008504 0.128581 0.019899 0.02109 -0.057827 -0.102048 -0.009397 0.137425 -0.100007 0.045922 -0.016328 -0.064971 0.048303 -0.057147 -0.035887 -0.008121 0.019049 0.029424 0.109532 0.038098 0.026192 0.049663 -0.043881 -0.014967 -0.074835 0.088442 0.057147 0.069393 -0.034356 0.000765 -0.025342 -0.020665 -0.02058 0.076876 -0.020665 0.093204 -0.097966 0.104089 -0.064971 0.02109 0.012416 0.040989 -0.059528 0.023981 -0.144908 0.052725 0.089122 -0.081298 -0.022281 0.06395 -0.003274 0.038778 0.002849 0.071434 0.032655 -0.025172 0.045922 -0.096606 0.040819 -0.010077 -0.068372 -0.026873 -0.029424 0.006335 -0.003827 -0.130622 -0.011991 0.027043 0.036567 0.000962 0.065311 0.016753 0.029764 0.008334 -0.008334 0.001786 0.069053 0.008461 -0.035377 -0.138785 -0.103409 0.015052 0.022281 0.050004 -0.093204 -0.032825 0.087081 -0.0432 -0.039969 -0.125179 -0.001095 0.021515 0.016583 0.010417 -0.079257 0.003912 -0.115655 -0.072114 -0.01165 -0.006676 0.066331 -0.137425 -0.039289 -0.062249 -0.008376 0.026533 0.006973 0.015052 0.007143 0.065651 -0.021515 -0.08538 -0.045241 0.058848 -0.052385 0.009057 -0.036227 0.003146 -0.003784 -0.001052 -0.024151 -0.031465 0.035887 -0.034526 -0.046602 -0.04269 0.039969 0.074155 -0.015477 0.077557 -0.004975 -0.06259 -0.037248 -0.057487 -0.046262 -0.153753 -0.045241 -0.005613 0.034696 0.016073 0.039629 -0.012331 -0.017093 0.083679 0.012416 0.00591 0.059868 0.06429 0.029424 -0.053405 -0.024151 0.028403 0.014627 -0.089122 -0.092524 0.083679 0.060889 -0.015988 -0.077216 -0.047622 -0.043541 0.035377 0.069393 -0.102048 -0.044561 -0.030955 -0.001191 -0.000187 0.140826 -0.016753 -0.002477 -0.007909 0.027553 -0.044221 0.103409 0.046262 -0.016413 -0.029594 0.014117 0.006378 -0.051704 0.012076 -0.030614 -0.062249 -0.013096 0.044561 0.024151 0.04235 -0.022961 -0.081639 -0.002626 -0.028914 0.008334 -0.187769 0.026873 0.10681 -0.034186 -0.019644 0.023641 0.028233 0.010758 -0.02211 -0.145589 0.00574 0.039459 0.055446 0.047282 0.027043 0.031635 0.033506 -0.005209 -0.04235 0.022451 -0.112253 0.075175 0.033336 0.040649 -0.055446 -0.069733 0.026703 -0.119056 -0.115655 -0.075516 0.047963 -0.012671 0.037758 -0.070073 0.024151 0.039459 0.003487 0.072454 -0.016073 -0.003508 -0.008844 0.021005 -0.01029 -0.044221 -0.000486 0.017433 -0.051704 -0.005485 0.037418 0.057827 0.145589 0.079598 -0.035037 0.074155 -0.026533 -0.025512 0.019644 0.082659 0.119736 0.082319 0.142867 -0.039118 -0.005294 0.030955 0.035037 0.02177 0.024832 0.059528 0.082999 0.02092 0.076196 0.000723 -0.038438 0.061229 0.023981 -0.082319 -0.046262 0.040479 0.054766 0.023301 0.002743 -0.010502 0.048983 0.043541 0.003359 0.088442
beaver 0.035911 -0.087902 -0.047882 0.08826 -0.07611 -0.089332 -0.037519 0.08683 0.085044 -0.025013 0.006477 0.0067 0.011211 -0.019564 0.039485 -0.040914 -0.165085 0.05753 0.077182 -0.011524 -0.055386 -0.016169 0.01197 0.012238 0.008799 0.065748 -0.103625 0.120062 0.033767 -0.023405 0.022244 -0.031981 0.072537 -0.032517 -0.010094 -0.031445 0.070036 -0.010943 -0.045738 0.077897 -0.002568 -0.018134 -0.109342 -0.074681 -0.080041 -0.015008 -0.053242 0.041986 0.029122 0.081113 -0.090046 -0.123635 -0.080398 0.026085 0.055743 -0.002189 -0.02537 -0.008576 -0.089332 -0.115774 -0.017777 0.082185 -0.090404 -0.004132 -0.023762 0.016884 0.027335 0.011434 -0.035197 0.010898 -0.01867 -0.000932 0.086116 0.012328 0.09219 -0.014204 -0.060745 -0.024298 0.095049 0.018938 -0.001686 -0.02412 -0.056815 -0.013221 0.036805 -0.108627 -0.033589 0.0201 0.003998 -0.150792 -0.099337 0.035375 -0.010184 -0.040378 -0.011211 0.025727 0.032874 -0.066105 -0.086116 0.052527 0.040199 -0.06146 0.042343 -0.106483 -0.013846 -0.010988 -0.007727 -0.037519 -0.01474 -0.017688 -0.065033 0.004712 0.016794 -0.056458 -0.015454 -0.055386 -0.087545 0.08147 -0.040378 0.007906 -0.004846 -0.061103 0.014918 0.005382 0.11363 -0.117203 -0.134355 0.068249 -0.011434 0.031802 -0.097907 0.081828 0.026799 0.015901 0.016258 -0.027514 -0.055028 -0.020993 0.031445 0.026978 0.042164 0.009916 0.05074 -0.059316 0.165085 0.043058 -0.028407 0.000157 -0.018224 0.062175 0.014114 -0.068607 -0.026085 0.042164 -0.11363 0.036983 0.100766 -0.015722 -0.01867 0.062889 0.026263 -0.017152 -0.031623 -0.017866 0.047882 -0.039663 -0.004779 0.037162 0.059316 0.004377 0.007102 -0.073967 -0.028765 -0.040378 -0.075753 0.045738 0.078612 -0.009782 -0.110056 -0.066463 -0.047882 -0.04413 0.081828 -0.008174 -0.083614 0.019117 0.003439 -0.020368 0.018224 0.01733 -0.028943 0.043951 -0.004735 0.001563 -0.087902 0.040378 0.039842 -0.061103 -0.003573 0.175804 0.013489 -0.028586 -0.033053 0.046095 -0.009469 0.08683 0.058959 -0.023048 -0.10291 -0.000837 0.027335 0.039663 0.00144 -0.03341 -0.078254 0.051455 0.129352 0.0201 0.026621 -0.054314 0.025906 -0.007727 0.000715 0.000174 -0.023762 0.003216 0.032338 -0.060388 -0.003774 0.063604 -0.02144 -0.011792 -0.032695 -0.097193 -0.129352 -0.022422 0.061103 -0.136499 0.075396 0.035554 0.096478 -0.066463 0.051812 -0.083614 -0.020457 0.087188 -0.009603 -0.040557 -0.038413 -0.05217 -0.012417 -0.008888 0.018224 0.030373 0.02805 0.170087 0.040378 -0.012417 0.006209 -0.085758 -0.024656 -0.011166 -0.007325 0.006745 0.116488 0.042879 -0.034125 0.071823 0.003685 0.010809 -0.044844 -0.047167 -0.022154 0.02269 0.035733 0.001976 0.073967 -0.096478 -0.065748 -0.020368 0.067892 -0.032874 0.062889 0.085044 0.031981 -0.040914 -0.073967 0.069679 0.007951 0.01608 -0.040378 0.039127 -0.066463 -0.029301 -0.006209 -0.079326 -0.082542 -0.101481 0.058601 0.017152
bed -0.010216 -0.031049 0.025339 0.091362 0.048536 -0.058529 0.030514 -0.070306 0.080299 0.01722 0.007004 -0.06638 -0.002967 0.002487 -0.07102 -0.056744 -0.038365 0.045503 0.106351 0.117058 0.011242 -0.005889 0.020342 0.009279 0.036937 0.000435 -0.083154 -0.011108 -0.080299 -0.077444 -0.070306 0.09279 -0.058886 -0.003636 -0.085295 0.003123 -0.020878 0.058886 -0.092076 0.002052 -0.010528 0.029086 0.067808 0.0298 0.037651 -0.026409 -0.037651 -0.017398 0.018736 0.020253 0.01258 -0.008654 -0.016327 0.033904 0.055674 -0.084224 0.063882 0.063525 0.022841 0.058172 0.014275 0.02177 -0.032298 0.021591 0.099927 0.037473 -0.073518 -0.062811 0.051391 0.052462 0.114916 0.023197 0.026052 0.04122 0.011599 0.044254 0.016506 -0.057458 0.088507 0.01606 0.04925 -0.016684 -0.026409 -0.005844 0.03212 0.040685 0.042826 0.067094 0.048179 -0.029443 0.066023 0.038008 0.059243 -0.07102 -0.037473 0.047822 0.156315 -0.162739 0.071734 -0.068165 -0.068522 -0.107065 0.072447 -0.097786 -0.041755 -0.040149 0.024447 -0.005799 -0.018915 -0.003569 -0.044075 -0.047465 0.045681 -0.094931 -0.009591 -0.038365 0.002576 0.05496 -0.026409 0.130619 -0.040506 -0.031406 0.01606 0.015435 0.029086 -0.041577 -0.023733 0.017755 0.07102 0.068522 -0.057458 0.038722 -0.020253 -0.007628 -0.071734 0.059243 0.029443 0.037294 0.063525 0.122768 -0.012669 -0.016506 0.0596 -0.051748 -0.052105 0.023197 -0.074232 -0.044075 -0.055317 0.028908 0.140612 0.043897 -0.00339 0.014365 0.051748 -0.054246 -0.052105 -0.088864 -0.077801 0.006469 0.045681 0.035153 0.037651 -0.07673 -0.022216 -0.005108 -0.034082 -0.034796 0.005108 -0.036224 0.008476 -0.029264 -0.044432 0.018915 -0.069949 -0.064596 0.063882 -0.06638 -0.051391 0.045146 -0.053176 0.01829 -0.011108 -0.00271 0.040506 -0.006692 -0.014989 0.085652 0.097786 -0.045146 0.074589 -0.09279 -0.012045 0.093503 0.009547 0.192717 -0.042826 -0.031941 -0.014989 -0.01142 0.003747 0.066737 -0.017577 -0.073875 0.012223 -0.046752 0.068522 0.067808 0.080656 -0.024268 -0.124195 0.055674 -0.102069 -0.010885 0.022038 -0.028372 0.018201 0.11563 -0.046395 0.069949 -0.039793 0.072447 0.084224 0.037294 -0.000449 -0.067094 -0.010751 -0.005554 -0.03212 -0.012491 -0.046038 -0.118485 -0.011777 -0.078871 -0.029978 -0.003903 0.038187 0.040149 0.032655 0.051034 0.027837 -0.075302 -0.01142 -0.00977 0.013829 0.007093 0.015881 -0.038008 -0.092076 -0.057101 0.073518 0.052819 0.097072 0.084224 -0.107779 0.007941 -0.079228 0.020878 -0.034082 -0.02516 -0.097072 -0.039793 -0.122054 -0.031049 -0.034439 0.031584 -0.047465 -0.027837 -0.088507 0.032298 -0.005398 -0.004305 0.142753 -0.015881 0.055317 -0.022841 -0.001461 -0.008298 0.040149 -0.073161 0.048179 0.112061 0.094931 0.024268 0.077444 0.02177 -0.005554 -0.064953 0.020164 0.09279 -0.039614 0.079585 -0.081013 0.038543 -0.087793 -0.094931 -0.102069 0.023376 0.012759 0.097786
bee -0.084762 0.009892 -0.07814 -0.002618 -0.065558 -0.039236 -0.054632 0.078471 -0.027647 -0.015645 0.013906 -0.048341 0.052314 -0.004532 -0.003663 -0.016638 0.017631 0.022349 -0.02715 0.048672 -0.014568 -0.008526 -0.074498 0.053639 -0.034104 0.0346 -0.027481 -0.058274 0.064234 -0.095357 -0.023343 -0.02864 0.053639 0.009809 0.007988 -0.036918 0.071518 0.09006 0.01134 0.06324 0.062247 -0.114561 -0.035428 0.017797 -0.028144 0.029965 -0.002276 -0.002245 -0.043374 0.09602 -0.077478 -0.023012 0.092046 -0.00745 0.098006 0.126481 -0.006043 -0.04503 0.008319 -0.052645 0.03609 -0.023343 -0.002752 0.00012 -0.002556 -0.057943 0.023508 0.044368 -0.095357 0.065889 -0.015645 -0.02417 0.012582 -0.08112 -0.036752 0.11125 0.01134 -0.039732 -0.005091 -0.006415 -0.047016 -0.028806 0.07516 -0.032945 -0.016803 -0.007946 -0.040229 0.048341 -0.005339 -0.086087 0.04503 -0.067214 -0.094033 -0.053307 0.103966 0.142374 -0.008898 0.021191 -0.029965 0.017797 -0.093371 -0.123832 -0.002773 -0.058605 -0.054963 -0.040394 -0.054301 0.011257 -0.096682 -0.024005 -0.008071 -0.04056 0.034435 -0.011423 0.12317 0.03609 0.066883 -0.053639 -0.054632 -0.004118 -0.008609 0.067876 -0.04056 -0.094033 -0.023674 0.000308 -0.022184 0.121846 0.103966 -0.038408 -0.145023 0.007864 -0.168862 -0.075491 -0.000504 -0.050659 -0.082776 0.023839 -0.055625 -0.04056 0.069863 -0.127805 -0.028806 -0.02566 0.067545 0.008443 0.012665 -0.091384 0.002432 -0.02028 0.099993 -0.024998 0.033441 -0.06622 0.068207 -0.117872 0.067876 -0.077478 0.003208 -0.083438 0.00023 0.014072 0.060592 0.010223 -0.064234 -0.07516 0.063903 -0.025495 0.019038 -0.025826 0.129792 -0.037911 0.073505 -0.094695 -0.131779 0.087411 -0.038242 0.038739 -0.02715 0.052314 -0.0173 -0.091384 0.073836 -0.063572 -0.042216 -0.079796 -0.012582 0.069531 -0.06324 0.099993 -0.008733 -0.030792 -0.060261 -0.0346 -0.016058 0.031786 0.10529 -0.007119 -0.005215 0.064896 -0.026985 -0.061254 -0.00178 0.044368 -0.049996 -0.083769 0.000504 0.04801 -0.004491 0.024336 -0.059267 -0.033607 0.04503 0.015645 0.127143 -0.025826 0.077809 -0.004035 0.062247 -0.03311 0.076153 0.068207 -0.092709 0.067876 0.018045 0.037415 0.032945 0.051983 0.040726 0.054632 0.083438 -0.056287 -0.082444 -0.005712 -0.022018 0.016721 -0.002649 -0.042712 0.055956 0.008153 -0.056287 0.040394 0.079796 -0.001376 -0.09006 0.038573 -0.060592 -0.006125 0.032117 -0.016224 -0.062578 -0.029137 0.011837 0.031455 0.0149 0.045361 0.006001 -0.133765 0.02417 -0.008029 0.019038 0.055294 -0.031951 -0.015976 0.056287 0.057281 -0.124494 -0.011423 0.091384 -0.033441 0.014651 -0.026157 -0.09602 -0.001174 0.04205 0.057612 0.033772 -0.09602 -0.031455 0.014817 -0.010678 -0.092046 -0.036752 0.05695 0.05695 -0.032117 0.022018 0.110588 -0.005008 0.115886 0.006705 -0.021356 0.088735 -0.02715 0.001511 -0.088073 -0.030792 -0.015893 -0.002525 0.005877
beetle 0.034251 0.047462 -0.044282 -0.019817 0.001369 0.027646 -0.085628 -0.005566 0.039633 -0.093457 0.088074 -0.132112 -0.025566 -0.092478 0.05945 -0.044037 -0.016147 0.089053 0.034251 -0.018471 -0.086607 -0.016514 0.013823 -0.004312 -0.061897 -0.002599 -0.033028 -0.01945 0.104711 0.062141 0.003028 -0.068013 -0.025444 -0.041591 -0.022508 -0.093457 0.045994 -0.042325 0.029725 0.128197 0.07046 -0.074374 0.008869 0.00289 -0.012905 -0.122326 0.140919 -0.021285 0.07682 0.043548 0.022141 -0.01578 0.088564 -0.045505 -0.03474 0.014679 -0.031315 -0.07682 0.009358 0.003333 0.029236 -0.002554 -0.041346 0.001881 -0.059695 -0.070949 0.062631 -0.085628 0.010581 0.042569 0.01315 -0.036208 -0.036208 -0.072417 -0.068502 0.034985 -0.088074 -0.081713 -0.047218 -0.054802 0.013028 -0.015474 -0.020673 -0.015046 -0.020795 0.027034 -0.041835 0.059695 0.071927 0.01474 -0.021407 -0.015168 -0.055536 0.031315 0.00789 -0.041346 -0.032539 -0.022019 0.009725 -0.010153 -0.010765 -0.110093 0.047218 0.001521 -0.02422 -0.032294 -0.066545 0.09101 -0.034251 -0.071927 -0.16832 -0.086607 0.036698 0.114497 0.022019 -0.048196 0.039389 -0.044771 -0.029358 0.01523 0.001797 -0.01474 -0.086607 0.000852 -0.046239 0.064099 0.018716 0.010948 -0.019205 0.027034 0.055047 -0.123793 -0.071438 0.029725 -0.00997 0.04575 -0.066056 -0.004862 0.012355 0.149727 0.01474 -0.040367 -0.053334 0.043303 0.05578 0.034007 -0.026667 0.041346 -0.051866 -0.0263 0.040857 -0.095903 -0.032783 0.029113 -0.032539 -0.015658 -0.006606 -0.03474 -0.076331 -0.026055 0.030459 -0.000692 0.007951 -0.02422 -0.023853 -0.010948 0.119879 0.068502 0.02789 0.040367 0.019817 0.073395 -0.001919 0.007125 -0.044771 -0.062141 -0.037432 -0.054802 -0.040123 0.006392 -0.072417 -0.124283 0.064588 0.029358 -0.021652 0.044771 -0.038655 -0.090521 -0.079756 0.033517 -0.033762 -0.057004 -0.040367 -0.010459 0.053089 0.058472 0.104711 -0.051377 -0.077799 0.000768 0.101775 -0.007951 0.031315 0.051377 -0.052845 0.032539 0.208443 -0.012477 -0.045016 0.037432 -0.143855 -0.00057 -0.04208 -0.050398 -0.027768 0.086117 0.045994 -0.041835 0.034251 0.073885 -0.014863 -0.03156 -0.065077 0.04942 0.005535 -0.052355 -0.052111 -0.037676 0.073395 0.073885 0.035719 -0.030214 0.032783 0.073885 -0.065077 -0.079756 -0.054802 -0.030337 0.176149 0.023242 0.07731 -0.088564 -0.074374 -0.073395 0.04942 -0.092967 0.024587 -0.050398 0.047218 -0.017493 -0.198657 -0.109114 0.071927 -0.069481 0.072906 -0.075842 -0.085139 0.019939 -0.003364 -0.017003 -0.042569 -0.009908 -0.006422 -0.068992 0.063609 0.057738 -0.086117 0.008318 0.004801 -0.013639 -0.019083 0.054068 0.011437 -0.029236 0.03841 0.039389 0.023609 0.033273 0.021407 -0.003731 -0.025933 0.030581 0.104221 0.015597 -0.009603 -0.109604 -0.01211 -0.030337 0.051377 0.067034 -0.059695 0.013333 -0.005474 -0.037187 0.005658 0.011193 -0.007125 0.092478 0.010703 -0.003762
bicycle 0.017825 0.003689 0.009824 0.031504 -0.01542 -0.006259 0.052728 -0.039297 0.023545 0.024872 0.079589 0.006881 -0.000782 -0.022219 0.020892 -0.027193 -0.05936 0.023048 0.037142 0.100813 0.036313 0.035318 -0.043774 0.072294 -0.032333 -0.011026 -0.067319 0.049412 0.101477 0.028188 0.015255 -0.07362 0.047422 -0.010612 -0.110099 -0.069309 0.087548 -0.053391 -0.047422 0.000653 -0.088212 0.094181 0.071299 0.096171 -0.042282 0.096171 -0.000959 -0.012187 0.064998 0.022882 -0.047754 0.086885 0.039629 0.049412 -0.081911 -0.009824 -0.053391 -0.057702 -0.017079 -0.031173 0.057702 -0.087548 -0.087548 -0.044106 0.025038 0.005389 -0.155199 -0.036644 -0.025535 0.055713 0.063672 0.096171 -0.068646 -0.007171 -0.064335 0.020975 -0.080253 -0.093518 -0.05306 -0.110099 0.122037 -0.05306 -0.000174 -0.015338 -0.082242 -0.008 -0.057039 -0.047422 0.006632 0.032499 -0.069641 0.04195 0.010073 -0.060687 0.009037 -0.069309 -0.010861 -0.058034 0.039297 -0.047422 0.003088 -0.0776 0.008581 0.112088 0.096171 0.062013 0.04908 -0.131986 -0.015006 -0.048417 -0.147904 -0.011441 0.033991 -0.052728 0.071631 -0.065993 -0.035484 -0.015752 -0.070967 0.033328 -0.050075 0.006798 -0.074947 -0.060355 -0.016332 0.053723 0.019814 0.009866 -0.023214 0.094844 -0.057702 -0.082906 -0.114078 -0.07561 -0.066656 0.01998 0.057371 -0.064998 -0.043443 0.1227 0.00572 -0.005347 -0.051733 0.022219 0.02653 0.060687 -0.005078 -0.05306 0.021721 -0.040126 0.074283 -0.02454 -0.012767 0.114078 0.027359 -0.003109 -0.027193 -0.057702 -0.067983 -0.026032 0.013348 0.057039 0.070967 -0.024706 -0.04195 0.042779 0.060687 -0.109435 -0.114078 -0.101477 0.040458 -0.058034 -0.021721 0.025867 -0.040126 0.010695 0.071631 -0.104793 -0.003316 0.066325 -0.02454 -0.048749 -0.045432 0.041784 0.059692 -0.008747 0.001658 0.138618 -0.033328 0.045432 0.043111 0.042779 -0.108772 0.075942 0.030178 -0.038634 -0.063008 -0.018902 -0.008456 0.032831 -0.121374 -0.086885 -0.04195 -0.038302 -0.020063 -0.080584 -0.078595 -0.037971 -0.012685 0.028022 -0.015918 -0.018488 -0.06334 -0.010114 -0.007462 -0.011358 -0.038468 0.090865 -0.030012 -0.008208 0.04709 -0.155199 0.096171 -0.111425 0.015338 -0.038634 0.021141 0.025867 0.078595 0.00912 -0.006591 0.098824 0.037142 -0.024374 -0.065661 -0.009534 -0.002674 -0.004954 -0.007752 -0.030509 0.032499 -0.093518 -0.045432 -0.055381 -0.002518 -0.024374 -0.019068 -0.097497 0.0097 -0.167801 -0.019234 0.018405 0.032002 0.100813 0.045764 0.091528 0.079258 -0.025535 -0.050075 -0.032996 -0.040624 -0.057371 -0.00051 -0.034655 0.040126 0.110099 -0.054718 -0.002083 -0.117394 0.018156 0.011026 -0.000133 -0.000427 0.032996 -0.032996 -0.049412 -0.091528 -0.031338 -0.03482 0.046096 -0.037308 0.002518 0.015172 -0.016996 -0.011938 -0.023877 -0.084232 0.055049 0.047422 0.047422 -0.069641 -0.027193 0.010156 -0.014177 0.042448 -0.06135 0.056707 -0.02653 0.016084 -0.034489
bottle -0.009456 0.037826 -0.048341 0.000618 -0.036099 0.097311 0.123679 -0.087893 0.076593 0.094799 -0.025897 -0.155069 0.018206 -0.005219 -0.099822 0.048027 -0.052422 0.08601 0.030606 -0.035157 0.078476 0.029664 -0.00773 -0.048655 -0.044261 0.058072 0.007298 0.084127 0.036099 0.040808 0.038767 -0.000513 -0.07879 0.015538 -0.028722 0.002531 0.04583 -0.015224 -0.048341 -0.000261 -0.109239 0.035157 0.111122 -0.037512 0.03296 -0.048969 -0.009221 0.023543 0.037512 -0.081615 -0.124934 -0.034373 0.007848 -0.099822 0.017186 -0.023386 0.046458 0.049283 -0.020011 -0.023072 -0.089777 0.016794 0.044888 -0.007338 -0.027781 -0.037198 0.01907 -0.107983 0.109867 -0.010751 0.021189 -0.008083 0.12619 -0.04583 -0.119284 0.080046 -0.01028 0.062781 0.074082 -0.043319 -0.01907 -0.095427 -0.101705 -0.06027 -0.029507 0.032489 0.017971 0.051794 0.094799 0.023386 -0.044261 0.087893 0.020247 -0.11175 -0.08036 0.045516 0.008515 -0.019305 0.031234 0.052736 -0.046144 -0.0237 0.050225 0.062153 0.021816 -0.097938 0.094799 0.009064 -0.006317 -0.045516 0.0474 -0.035157 -0.058072 -0.072198 -0.069059 0.01083 -0.037983 -0.056503 -0.018442 -0.018599 -0.042377 -0.023229 -0.008946 -0.018834 0.008672 -0.027153 0.109867 -0.053364 0.025426 0.015303 -0.075023 0.04583 -0.098566 -0.039866 -0.012164 0.164486 0.105472 -0.078162 0.024485 0.043633 -0.017657 -0.083499 -0.071884 -0.061211 -0.049911 0.042063 0.021659 0.010516 0.001766 -0.103589 0.124306 0.059956 -0.037198 0.002266 0.081615 -0.026054 -0.073454 0.023857 0.0041 0.061525 0.000365 -0.005219 0.026054 0.01491 0.025112 -0.083499 0.077848 0.040808 -0.077848 -0.041435 -0.050853 -0.027624 -0.023072 0.071884 -0.161975 -0.038296 0.042063 -0.026368 -0.139374 0.026839 -0.010751 0.025897 -0.00569 0.04018 -0.077848 0.067803 0.002943 0.13184 -0.065292 0.035942 -0.060584 0.02009 -0.006788 0.063409 -0.039866 0.060584 -0.010045 -0.017265 -0.045202 -0.057759 -0.014361 0.014047 -0.092288 0.042377 0.084127 -0.004532 -0.026211 0.01907 0.011614 0.015538 -0.054619 -0.037512 -0.0474 0.062153 -0.035157 0.067176 -0.075023 -0.012635 0.005258 0.082871 0.008397 -0.03657 -0.022601 0.031704 0.074395 0.075651 0.049597 0.016323 -0.008515 0.084127 -0.049597 0.009182 -0.046458 -0.037198 -0.015617 -0.082243 -0.082243 0.000181 0.070001 0.011458 0.022758 -0.02574 0.020561 -0.025269 0.082871 0.037826 -0.104216 0.00359 -0.046772 -0.031077 -0.019933 0.00569 0.105472 0.008005 0.011928 0.068745 0.000701 0.040023 0.009064 -0.065606 -0.038453 0.02009 -0.140629 0.010673 0.000961 -0.053678 -0.011144 -0.043947 -0.08601 0.047086 -0.059328 -0.049597 -0.052736 0.13749 0.08036 0.049597 -0.020875 -0.049283 -0.010987 -0.064037 -0.060898 0.037512 0.097938 0.027153 0.032332 0.022601 -0.036099 0.08601 0.003747 0.016558 0.069687 -0.051794 -0.035314 0.042063 -0.033274 -0.125562 0.046458 0.019541 -0.0237 -0.006396
bowl -0.114892 0.024812 0.045849 0.103564 0.046658 0.033308 0.061222 -0.04477 -0.008428 0.025891 -0.096552 -0.043691 0.069043 0.061222 -0.057985 0.029532 -0.033038 -0.054749 0.021171 -0.022385 0.021576 -0.012204 -0.037758 -0.064997 0.031959 -0.0623 -0.052052 0.081988 -0.06311 0.035331 0.003961 0.118667 0.03115 -0.024543 -0.002613 -0.00627 -0.018879 0.04477 0.034117 0.153189 -0.094934 0.013013 0.163977 -0.025352 -0.02198 -0.060143 -0.019958 -0.021576 0.097092 0.094934 0.007922 -0.00166 0.051782 -0.032768 0.012204 -0.115431 0.041803 -0.090619 0.030206 -0.108958 -0.060682 0.08037 -0.038297 0.009777 -0.076594 -0.00327 -0.008226 -0.036409 0.057176 0.040725 -0.001736 -0.043421 -0.048276 0.012136 -0.037218 -0.054749 -0.013013 -0.000415 -0.023733 -0.020362 0.011799 -0.042612 -0.105722 -0.01834 -0.027914 0.024812 -0.087382 0.00359 0.028723 0.119207 0.017396 0.02279 -0.030071 -0.033443 0.011192 -0.036409 0.030881 -0.057985 -0.001172 0.084146 -0.023599 0.006608 0.001938 -0.004281 0.014496 0.008327 -0.028588 -0.000641 0.01571 -0.024003 -0.029127 -0.011192 0.0712 -0.0267 0.097631 0.036679 -0.02252 -0.039646 -0.038567 -0.049085 -0.050973 0.01362 0.093316 0.101407 -0.146716 0.048276 0.021306 0.041264 0.083607 -0.097092 0.085225 0.050434 -0.003304 0.049085 -0.023059 0.061491 -0.028723 0.069582 0.132152 0.138086 -0.066346 -0.056367 -0.055828 -0.0267 -0.017193 0.099249 -0.056367 -0.052591 -0.06311 0.091698 0.08037 -0.040455 -0.069043 0.100867 -0.036409 -0.081449 0.040994 -0.0712 -0.010788 -0.018474 -0.08037 -0.045309 0.01362 -0.015845 -0.029532 -0.112734 0.047197 -0.00354 -0.00536 0.009035 -0.085764 -0.016856 -0.051243 -0.020497 -0.120825 0.002191 -0.025891 -0.024408 -0.009507 0.023733 0.018879 0.037488 0.077673 -0.046928 -0.060682 0.058255 0.040185 -0.029262 -0.008125 0.004349 0.023733 0.061491 -0.089001 -0.067425 -0.041264 -0.023464 -0.020632 -0.048815 -0.042343 -0.026161 -0.025756 -0.079831 -0.113813 0.034521 0.014766 0.01308 0.049355 -0.110576 -0.01099 -0.069043 0.002849 0.028723 0.066076 -0.032634 -0.007889 0.047467 -0.025891 0.009911 -0.023464 -0.085225 -0.016114 0.030206 -0.091158 0.008529 0.061761 -0.003574 0.011597 -0.016317 -0.013755 -0.099789 -0.077134 0.007754 0.077134 -0.010451 -0.075516 -0.061222 0.092237 -0.024408 -0.012339 0.043421 0.086304 0.066076 0.056097 -0.078213 -0.006641 0.030476 -0.038837 0.069582 -0.076055 -0.065267 -0.075516 -0.084146 0.117589 -0.026026 -0.0356 -0.035331 -0.048006 -0.047737 0.02724 -0.017396 0.040455 0.032364 -0.043691 0.123522 -0.010451 0.025621 -0.067694 0.011799 -0.091158 -0.091698 0.05394 0.01099 0.06257 -0.012136 0.052052 -0.065267 -0.024947 -0.076055 -0.003523 -0.091698 0.01544 -0.021711 0.086304 0.020632 -0.029532 -0.05367 0.020767 0.120825 -0.115431 0.028318 -0.073897 -0.043961 -0.034387 -0.085225 0.185553 0.024812 -0.022385 0.045849 -0.028049 -0.010316
boy 0.083968 0.058882 0.033274 -0.045991 0.005705 0.012891 -0.041636 -0.026131 0.049475 0.004116 0.066896 -0.103827 0.006097 -0.06585 -0.102434 0.000909 -0.078393 0.063411 -0.043029 0.01925 0.013501 0.088846 0.063063 0.009625 0.043203 -0.125429 -0.020818 0.043552 0.21323 -0.05714 0.038674 -0.00858 -0.041636 0.012804 -0.084665 0.041113 0.188144 -0.078045 -0.016201 0.117764 0.013414 -0.019685 0.11637 0.002406 0.132397 0.013153 0.023866 0.018466 -0.016985 -0.028222 0.01594 0.059927 0.019685 -0.103827 0.092678 -0.035712 -0.039197 -0.003266 0.009407 -0.012282 0.033448 0.126126 0.029964 -0.002766 0.030835 -0.018727 -0.019947 -0.03066 0.019163 -0.005248 0.012978 0.016724 -0.121248 0.045991 -0.043726 0.163058 0.045642 -0.103131 0.055746 0.013327 0.098253 -0.004595 -0.053656 -0.058534 -0.121248 0.02857 -0.003288 0.00993 0.033274 0.008057 -0.005792 -0.029441 -0.006794 -0.012456 0.033622 0.013066 0.022821 0.071425 -0.014459 -0.038848 -0.001405 -0.091285 0.024215 -0.067592 0.061669 -0.062018 0.073864 -0.056792 0.001018 -0.064457 -0.024737 0.073167 0.021166 -0.077696 -0.048778 -0.001753 -0.049475 -0.026654 -0.01263 0.04059 0.010975 -0.037803 -0.117764 -0.009712 -0.006925 0.03397 0.031009 -0.007709 -0.024912 -0.062018 -0.05714 -0.087104 0.003506 0.008014 -0.076303 0.068289 0.071773 0.009712 0.01006 0.086407 0.126823 -0.018989 0.06376 0.024215 -0.024041 0.124732 -0.068638 -0.003571 -0.073167 -0.056792 0.134488 -0.077 -0.084316 0.02317 -0.004987 0.015069 0.008972 -0.035887 0.049126 -0.086755 0.043029 0.007273 0.111493 0.039197 -0.037455 -0.032577 0.07909 -0.037106 0.044945 0.018205 0.022821 -0.041287 -0.011411 -0.029789 -0.07038 -0.008318 0.069334 0.080135 -0.082226 0.014895 0.02317 -0.060972 0.028047 -0.012804 -0.05923 0.080484 0.044074 0.038674 0.041287 0.026305 -0.005575 -0.020905 -0.03188 0.046688 0.067941 -0.012804 -0.004878 -0.067244 -0.052959 -0.089891 -0.043726 -0.098253 -0.055049 -0.10104 0.039545 -0.0878 0.067592 -0.008928 0.03066 -0.041984 -0.008797 -0.047384 0.035712 -0.087452 -0.072122 -0.027002 0.021515 0.061669 -0.023518 0.024215 0.024912 -0.014633 0.076651 0.025608 -0.001633 -0.000144 0.03066 -0.091285 -0.015417 -0.047036 0.007317 -0.0878 -0.045991 0.044074 -0.052959 0.018379 -0.055398 -0.060972 0.068638 0.077348 0.020731 -0.045991 -0.051217 -0.002776 -0.041113 0.145637 -0.120551 0.030835 0.074212 0.008405 0.048778 -0.016811 0.035364 0.042158 0.042507 0.044423 0.016637 0.019337 -0.075606 -0.029267 -0.018466 0.007273 -0.056792 -0.063063 0.030486 0.049475 -0.036235 0.00932 -0.067244 -0.005618 0.043203 -0.034493 0.007622 -0.023866 -0.009625 0.012543 0.060276 0.005553 -0.044945 -0.051565 0.06376 -0.026479 0.009712 0.177691 -0.021515 -0.04843 -0.057837 0.034145 -0.006576 0.139366 0.006794 -0.00368 -0.041113 -0.103827 -0.021253 -0.019163 -0.026479 -0.094769 -0.036758 0.04843
bridge 0.065082 -0.007528 0.026551 -0.036426 0.026227 -0.066053 0.043064 -0.02817 0.138582 -0.00172 0.005828 0.038369 -0.017727 -0.039502 -0.004756 -0.045654 -0.036264 -0.077709 0.040797 -0.057958 0.101022 -0.01028 -0.023151 -0.010928 0.093251 -0.109441 -0.029141 0.005221 0.132106 -0.064434 -0.072529 0.001619 0.02048 -0.037236 0.041121 -0.02218 0.001508 0.078681 0.052454 -0.073176 -0.109441 0.060872 0.054397 -0.058282 -0.058282 -0.083538 -0.041283 0.025903 -0.006031 0.146353 0.009188 0.037074 -0.036912 -0.049864 -0.047273 0.040474 -0.032055 0.036264 0.034645 -0.046302 0.069939 -0.046626 -0.061196 -0.064758 0.044683 0.05472 -0.065729 0.060225 -0.074795 -0.0803 0.018942 -0.086128 0.009228 -0.078681 -0.038369 0.030598 -0.117212 0.013356 -0.038693 -0.025741 -0.017404 0.004614 -0.002317 -0.037236 -0.094546 0.119802 -0.011333 -0.081595 0.051483 0.064758 -0.102317 0.03675 -0.007042 0.029141 -0.083538 0.000739 -0.050835 0.027684 0.022503 -0.033188 -0.050511 0.016028 0.00854 0.04954 0.084833 0.021046 0.002155 -0.090661 0.073176 0.002631 -0.033998 -0.017485 0.016918 -0.038045 0.075443 -0.009957 0.000379 -0.030598 -0.079328 0.055692 0.077709 0.061844 -0.080624 0.082566 0.014894 -0.040312 -0.079328 0.064434 -0.012304 0.04954 -0.000981 0.055044 -0.073176 -0.062815 -0.006192 -0.010928 -0.032541 -0.046302 0.095194 0.081919 -0.124335 0.014894 -0.021046 0.049864 -0.018861 -0.05472 -0.103613 0.006759 -0.050835 -0.057635 0.069291 -0.103613 -0.03675 -0.027198 -0.066701 0.015623 -0.050511 -0.058606 -0.029627 0.028655 0.035455 0.027846 0.000549 -0.049216 -0.078681 0.002793 0.042093 -0.128868 -0.009471 0.070586 -0.083538 0.06832 -0.023637 -0.072853 0.101022 -0.078681 -0.040474 -0.009673 -0.042416 0.105555 -0.011656 -0.042416 -0.032541 0.019427 0.056016 0.033027 0.024932 -0.053749 0.121097 0.009997 0.067996 -0.056987 -0.038531 -0.0735 -0.030922 -0.005545 -0.071881 0.02137 -0.04274 -0.057635 -0.045978 -0.015785 -0.00253 -0.027036 0.010442 -0.040312 -0.010321 0.058282 0.032703 -0.010604 -0.116564 0.029951 -0.048245 0.015704 -0.145058 -0.047597 -0.04274 -0.026065 0.018618 0.086776 0.103613 -0.069615 0.077709 -0.008904 0.007245 -0.04274 -0.083538 0.099727 -0.017727 0.066053 -0.01878 9e-05 -0.023799 -0.065082 -0.039988 -0.111384 0.02396 0.014085 0.06411 0.053425 0.016675 0.003643 -0.016756 -0.034484 0.052454 -0.078033 -0.01198 -0.02396 -0.08289 -0.081595 0.040636 -0.005504 -0.078033 0.04015 -0.012223 -0.072529 0.011009 0.070586 -0.072853 -0.056339 -0.036426 -0.034322 -0.000789 -0.04015 0.074795 0.127573 -0.093251 -0.067672 -0.037883 0.08289 0.084185 -0.049864 0.029303 -0.03335 0.102965 -0.062168 0.035455 -0.154124 -0.056339 -0.098432 -0.056987 0.025417 -0.045007 0.072529 0.100375 -0.027684 -0.055692 0.043064 0.032865 -0.042093 -0.028008 0.007933 -0.077709 0.028655 -0.003825 0.002833 0.030436 -0.058606 0.033027 -0.071557
bus 0.019875 -0.056926 0.013005 -0.016604 0.012841 -0.051365 -0.055618 -0.148532 0.080155 0.003946 0.084408 0.049075 -0.015867 -0.08768 -0.010101 -0.016522 -0.052346 -0.054636 0.091606 -0.013741 0.012923 -0.01734 -0.014968 0.121051 0.063797 -0.033207 -0.025682 0.023065 0.069359 -0.009488 0.014477 -0.090952 -0.076883 0.012432 -0.056599 -0.033044 0.053001 0.07263 -0.035824 0.004478 -0.113199 -0.04384 0.099458 -0.047112 -0.030753 -0.035988 -0.011614 0.025192 0.021266 0.040241 -0.044821 0.128248 0.096186 0.032553 -0.067069 -0.017421 -0.042204 0.085717 -0.015949 0.022084 0.017585 -0.042858 -0.043186 -0.022411 0.013577 0.027155 -0.067069 0.063143 0.014313 0.071976 -0.033044 0.102729 -0.003987 0.078846 -0.022901 -0.008302 -0.015949 -0.042531 -0.019793 -0.041713 0.045803 0.052346 -0.034352 0.069686 -0.032226 -0.00366 -0.017258 -0.058235 0.053982 -0.04384 0.032716 -0.011451 0.052019 0.030426 -0.02192 -0.024047 0.016358 0.032553 0.065433 -0.049402 -0.031571 -0.056926 0.045476 0.149841 0.023719 -0.031244 0.119742 -0.039914 -0.030099 -0.050056 -0.198916 -0.073612 -0.005439 -0.074593 0.064124 -0.035334 0.029772 -0.055618 0.016685 -0.01096 -0.045476 0.007198 -0.061834 -0.085063 -0.058235 0.023719 -0.109927 0.053328 0.046457 -0.044821 -0.02879 -0.09684 -0.070667 -0.124977 -0.004499 0.02879 0.040405 -0.064778 -0.059544 0.076556 -0.1361 -0.113199 0.016767 0.016931 0.025846 0.043186 -0.097495 -0.094223 0.038769 -0.058235 0.082772 -0.025846 0.015786 0.001953 -0.047112 -0.025355 0.018812 -0.006911 -0.01325 -0.060852 -0.083427 0.077865 0.115816 0.004437 0.024537 0.026173 0.041877 -0.102075 -0.030099 -0.123668 -0.031735 -0.011696 0.012514 -0.063143 -0.008997 0.040078 -0.031735 -0.011941 -0.033698 0.023883 -0.020121 -0.029935 -0.031081 0.026664 0.07492 -0.02601 -0.031735 0.057908 -0.072303 -0.00912 0.056599 0.025682 -0.055618 0.113853 -0.025846 -0.013986 -0.145261 -0.072958 -0.025846 0.07034 0.060198 0.010469 -0.02192 -0.045476 -0.022411 -0.123668 -0.00413 0.016767 0.069359 0.023229 0.056926 0.014559 -0.074266 -0.033044 -0.059544 0.027482 -0.022411 0.11189 -0.031571 -0.04842 0.010878 -0.057254 0.168816 0.066087 0.002546 0.004417 -0.110581 0.058562 -0.027318 0.004049 0.020121 0.016604 0.043186 0.070013 -0.056272 -0.051365 0.000585 0.012023 0.070995 -0.005316 -0.007729 -0.013577 0.008424 -0.143298 -0.09684 -0.006789 0.016358 -0.015131 -0.041386 -0.045803 0.021593 0.070995 0.00137 -0.029118 -0.005316 -0.074266 0.055618 -0.027318 -0.003558 -0.127594 -0.009651 0.039096 -0.062161 -0.006053 0.012923 0.051038 -0.037951 0.071322 -0.086371 -0.025682 0.047112 0.03697 0.079501 0.109927 0.035988 -0.032389 0.036806 -0.04613 -0.034189 -0.069686 -0.046457 -0.001912 -0.02601 -0.03697 -0.002127 -0.041223 -0.052019 0.09684 0.045476 0.045476 -0.003721 0.026664 0.04384 -0.070995 0.024701 0.027155 -0.053001 0.159002 0.020039 -0.081791
butterfly -0.009328 0.079213 0.002296 0.047069 0.001027 -0.087823 0.020951 0.02583 -0.018942 0.037311 -0.009973 -0.060558 -0.06515 0.02827 -0.052522 -0.010547 0.03932 0.060845 -0.051087 -0.039894 -0.026548 0.073473 -0.05654 -0.008718 -0.120542 -0.064576 -0.047356 0.059697 -0.016216 -0.027983 -0.092416 0.072038 -0.064289 -0.064289 0.068594 -0.09299 -0.013202 -0.070603 0.03401 0.184831 0.029131 -0.033006 0.095286 0.095286 0.034584 -0.041903 0.083231 -0.049365 0.140632 0.076917 -0.01392 0.020234 0.091842 -0.079787 0.065437 0.078065 0.049078 -0.094138 0.078639 0.025113 -0.048217 -0.036306 0.040181 -0.051661 0.001354 -0.251416 -0.01679 -0.081509 -0.000531 -0.008216 0.007067 0.044486 0.041616 -0.031427 -0.023821 -0.009041 0.033436 -0.072899 -0.025687 0.006386 -0.030566 -0.002368 0.066585 -0.106766 0.05654 0.053096 -0.002691 0.000865 0.045921 -0.041616 0.083231 -0.001381 -0.088397 -0.010189 -0.086101 -0.046495 0.062567 -0.081509 -0.005561 -0.038459 -0.013417 -0.114802 -0.045634 -0.076343 -0.019086 -0.043625 0.050513 -0.044199 -0.061993 -0.013489 -0.054244 -0.068881 -0.120542 0.14465 0.021238 -0.021525 -0.051948 -0.011121 -0.026404 0.039894 0.018297 -0.023534 0.099878 0.005668 0.001157 0.005453 0.09873 0.072038 -0.004502 0.112506 0.023391 0.013346 0.013633 0.027122 0.049365 -0.022099 -0.078639 0.048791 0.033006 0.009399 0.00696 0.033867 -0.016359 -0.036163 0.076343 0.004449 -0.053383 0.078065 -0.097582 -0.045921 0.122264 -0.009902 -0.038172 0.091842 -0.01392 -0.031714 -0.021095 0.076917 0.021812 -0.022817 -0.016144 0.017077 0.038746 -0.067446 -0.078639 0.056827 0.068881 -0.037885 0.020951 0.030279 0.092416 0.001009 -0.035158 0.004377 -0.09012 -0.047069 0.102174 -0.022817 -0.041329 0.000435 -0.037311 -0.032432 0.027552 -0.003946 -0.001614 -0.016359 -0.011408 0.0508 -0.021812 0.041903 0.008538 -0.014853 -0.102748 -0.017292 -0.039033 -0.037024 0.048217 0.063715 -0.053096 -0.062567 0.064289 -0.036737 -0.019947 -0.033436 -0.098156 -0.079787 0.03401 0.033006 -0.06228 0.019229 -0.146946 -0.058836 -0.027696 -0.037024 0.047643 -0.026978 0.051374 0.018225 0.041329 -0.015283 0.023104 0.017507 -0.011265 0.005381 -0.034154 -0.092416 -0.007103 0.04506 -0.020521 0.009471 0.0508 -0.005058 -0.055679 -0.044486 0.033293 -0.049652 -0.006314 -0.089546 0.078639 -0.012341 0.135466 -0.102748 0.025113 -0.046495 0.038746 0.027839 -0.102174 -0.085527 0.009973 0.012915 -0.129152 -0.04219 0.078639 0.12169 -0.034871 -0.11021 0.014924 0.066872 0.014637 0.064002 -0.004251 0.080935 -0.05367 -0.049939 0.054531 0.043338 0.053096 0.088972 0.014781 0.029849 -0.025687 0.006565 -0.054244 0.013991 0.11308 -0.053383 0.009543 -0.049939 0.025113 0.040755 0.079787 0.045921 -0.018368 -0.011624 -0.028987 -0.061993 0.023821 0.032575 0.006601 0.05941 -0.008144 0.017938 0.054244 -0.051087 0.004879 -0.031284 0.081509 0.013202 0.037885 0.009256
camel 0.039041 0.015246 -0.143054 0.001665 0.016813 -0.054429 0.071242 -0.0109 -0.031062 0.0929 0.006056 -0.105438 -0.106578 0.014106 -0.119687 0.032629 -0.057279 -0.084351 -0.078081 -0.04588 0.010116 -0.025647 0.128806 0.080931 0.056424 -0.017739 -0.100879 0.049299 0.043885 -0.117977 -0.070672 -0.001754 0.050724 0.080361 -0.056709 -0.001567 -0.023652 -0.047305 -0.037901 0.02123 -0.030777 0.000265 0.01033 -0.002583 0.031916 0.015531 -0.016172 -0.028354 0.100309 -0.034339 -0.08891 -0.070102 0.04018 -0.029209 -0.028782 0.02123 0.053289 0.09119 0.042745 -0.018808 0.060128 -0.056424 0.035621 -0.011612 -0.014391 -0.037616 -0.017098 0.034624 0.035621 -0.039896 0.04075 0.017312 -0.077511 0.021943 -0.017526 -0.038471 -0.057564 0.039326 -0.055569 0.011897 0.026502 -0.076371 0.005735 -0.067822 -0.082071 0.050724 -0.060698 0.035906 0.037331 0.066683 0.058703 0.09062 -0.042745 -0.028639 0.069247 -0.025077 0.095749 -0.005699 0.108858 -0.071242 -0.028639 -0.065543 -0.029779 0.066967 0.003099 -0.015958 0.094039 0.043315 0.02465 -0.098599 -0.025647 -0.007516 0.124246 0.054999 0.030207 -0.094039 0.032771 -0.04075 -0.002957 -0.039896 -0.031346 -0.080361 -0.050724 -0.041035 0.008442 0.009261 0.058133 -0.104298 0.058988 -0.011256 -0.140774 0.039896 -0.08777 0.016884 -0.029494 0.057849 0.003152 0.0436 0.00919 0.106008 0.053004 -0.035336 0.052149 -0.023367 0.059273 0.057564 -0.025077 0.001073 0.098599 -0.04132 0.08492 -0.008015 -0.049869 -0.024222 -0.000926 -0.074092 0.002404 -0.014035 -0.080931 -0.08891 -0.027072 -0.064688 0.127096 -0.068677 0.013821 0.017312 0.111138 -0.107718 0.005023 0.006554 -0.031489 0.059558 -0.008656 0.002493 0.04588 0.040465 0.121966 -0.037331 -0.058703 -0.048445 -0.038471 -0.112847 -0.039041 0.04246 0.018095 0.036761 -0.004435 -0.01147 -0.037046 0.064118 0.077511 0.076371 0.04588 0.020375 -0.005521 -0.030634 -0.080361 0.062693 -0.033056 0.008976 0.050154 -0.151603 -0.09005 -0.016029 0.025932 0.019093 0.08891 0.067252 -0.002369 0.036048 -0.004809 -0.003331 -0.005842 -0.070102 0.006768 -0.000284 -0.01432 -0.001425 0.035194 0.000891 0.058133 0.04075 0.064688 0.030634 -0.016029 -0.101449 0.024507 0.08891 0.084351 0.001959 0.032914 -0.017027 -0.025505 0.030634 -0.115697 -0.001425 0.068392 -0.045025 0.04246 0.019805 0.153883 -0.099739 -0.056139 0.050724 0.117977 -0.042745 0.026645 0.027499 -0.037331 -0.04645 -0.010544 0.02465 -0.08834 -0.037616 -0.004844 -0.022655 -0.029637 0.020945 -0.096889 -0.076371 0.055569 -0.010259 0.04132 0.104298 0.053859 -0.02522 0.02408 -0.062693 -0.013536 0.094039 -0.011541 0.09347 -0.000372 0.041605 0.054714 -0.029067 -0.04531 -0.115697 0.003277 0.054714 0.033056 -0.003918 -0.01952 -0.029637 -0.030207 -0.027927 -0.032059 0.018167 0.096889 0.04702 -0.100309 0.04417 0.053289 0.02636 -0.031204 0.097459 0.012254 0.164142 -0.024222 0.000159
can 0.047697 -0.01741 0.044836 0.073931 -0.097303 0.016336 0.097303 -0.02993 -0.006707 -0.009897 -0.037204 -0.009957 -0.047697 -0.03935 -0.021822 0.033388 0.036011 0.14023 0.03935 -0.023372 -0.091102 -0.02528 0.001558 0.016933 -0.002787 -0.03315 -0.060814 0.062007 -0.053898 -0.026353 -0.021106 0.050321 -0.000367 -0.094441 0.05366 -0.006141 0.010851 -0.033865 0.015502 -0.076316 0.035773 -0.018721 0.074408 0.024206 0.004919 -0.059622 0.011328 0.072977 -0.024564 -0.168849 -0.072977 0.069161 -0.021702 0.037442 0.059145 0.011924 0.038635 -0.051036 0.071069 0.038873 0.036727 0.045074 -0.11972 -0.027426 -0.022895 -0.005366 -0.007989 0.105888 0.001155 -0.047459 0.11352 0.054613 0.024564 -0.066776 -0.080609 -0.082993 0.09301 0.114951 -0.006171 -0.021464 -0.010255 -0.038158 0.03148 -0.016217 -0.020152 0.040304 -0.031719 0.070115 0.024922 0.054375 -0.017767 0.016336 -0.07727 -0.153585 -0.041497 -0.060099 0.075362 0.035296 0.020987 0.082039 0.037204 -0.008168 -0.052944 0.05986 -0.145 0.038873 -0.050082 -0.040304 0.101595 -0.004293 -0.160263 -0.05199 -0.06153 -0.025757 0.064391 0.06296 -0.04412 -0.007333 0.066299 0.054136 -0.006022 0.034819 -0.021464 0.006409 -0.045074 -0.028618 -0.0725 -0.003726 0.012938 -0.032911 -0.015621 0.016813 -0.069161 0.005426 -0.000453 -0.131645 0.082516 -0.036965 0.079655 0.080609 0.032434 -0.103026 0.060099 0.004323 0.087286 -0.025995 0.004114 -0.116858 0.054136 -0.050798 0.023968 0.043882 -0.006618 -0.039112 0.060337 0.070115 -0.011507 0.042212 -0.163125 0.004859 0.049128 0.050559 -0.020629 0.05199 0.00313 -0.107319 -0.037204 -0.033627 0.004919 -0.002579 -0.091579 0.005366 -0.055567 0.012759 -0.016217 -0.032196 -0.018125 0.026234 -0.003503 0.059145 -0.057237 0.032434 0.061053 0.004293 -0.007632 -0.070115 -0.082039 -0.046743 0.105411 0.064868 0.05676 0.034104 -0.006737 -0.019317 0.013892 -0.007333 -0.025757 -0.065345 -0.028141 -0.13546 0.030049 0.106365 -0.051036 0.01884 -0.070592 0.034581 -0.018244 -0.021106 0.040543 0.027187 -0.102072 0.050559 -0.034581 0.053898 -0.077747 0.058668 0.070115 -0.042451 -0.119243 0.033627 -0.026353 -0.030526 -0.086809 -0.110181 -0.041258 0.009003 0.091102 0.036965 -0.093964 -0.036011 0.025637 -0.034342 0.010255 0.011388 0.042928 -0.008049 -0.050798 0.049605 0.072977 0.056998 0.019437 0.028141 0.134507 -0.078701 -0.006618 0.020868 -0.058906 0.024087 0.054375 -0.037681 -0.006022 -0.042928 0.145 0.030288 0.060337 0.023729 0.036727 0.019914 -0.013057 -0.01109 -0.041258 0.030288 -0.047459 0.059145 0.034819 0.055329 0.032196 -0.001841 0.018125 -0.033388 0.165033 0.146908 0.011447 0.110181 -0.032673 0.021583 0.009957 0.014786 -0.039827 -0.013594 -0.029215 -0.033388 0.007751 0.009003 -0.038158 -0.043643 0.02361 0.032673 0.055806 0.062007 -0.084901 0.023014 -0.02838 0.034581 -0.045312 0.115428 0.031003 -0.094441 -0.057475 0.024803
castle -0.038993 0.003271 0.002064 -0.040047 0.018882 -0.022834 -0.080445 0.159484 0.036358 -0.047775 0.05199 -0.006894 -0.007992 -0.017037 0.011417 -0.089929 0.000229 0.072014 0.01572 -0.00966 -0.001866 -0.111007 0.061124 0.019936 0.024941 0.049883 0.000461 0.03425 -0.013261 -0.0274 0.053747 -0.044613 -0.046019 -0.030913 -0.041452 -0.070257 0.075878 -0.052342 -0.03267 0.018882 -0.038817 -0.084309 -0.072716 -0.002042 -0.161592 -0.045667 0.04233 -0.064988 -0.030386 0.046019 -0.037412 0.055152 0.035304 -0.116627 -0.000823 -0.047775 -0.038115 0.005599 -0.052342 -0.151053 -0.044262 0.111007 -0.063583 -0.137002 -0.032143 0.021165 -0.020462 -0.004303 -0.03952 -0.04233 0.054801 -0.086768 0.053747 0.025468 0.040574 -0.015457 0.001004 0.089929 0.03952 -0.118032 0.004567 -0.161592 -0.034426 -0.03267 0.077986 -0.075527 -0.077986 -0.049883 0.072014 -0.013525 -0.094847 -0.024063 -0.089578 0.011768 0.010978 0.103981 0.028806 -0.062529 -0.055152 -0.017564 -0.016862 -0.040047 0.046019 0.022043 0.020902 -0.075527 -0.024239 -0.063934 -0.019848 -0.03267 -0.091335 0.036709 0.02582 -0.00157 0.003184 -0.106089 0.011944 -0.145433 0.077283 0.103278 0.007553 0.015632 0.151756 -0.043208 0.022307 0.011944 -0.029859 -0.034426 -0.04918 -0.005752 -0.118032 -0.04637 -0.111709 0.043384 -0.028981 -0.010758 -0.015193 0.029157 -0.022482 0.061827 0.052342 -0.094847 0.063934 -0.051288 0.066745 -0.025293 -0.031265 -0.108196 -0.013437 0.050234 0.020111 -0.059719 0.12295 -0.027576 -0.05199 0.045316 0.064988 -0.00887 -0.09836 0.011417 -0.001394 0.022482 -0.004281 -0.048126 -0.060773 -0.058665 -0.069555 -0.08747 -0.00606 0.067447 -0.054449 -0.039871 0.058314 -0.01853 -0.037412 -0.094847 -0.034602 -0.036885 0.069906 0.025644 -0.072365 -0.004193 0.009397 -0.07377 -0.009836 0.013085 0.108196 -0.02582 0.015457 -0.059368 -0.109602 -0.05726 2.2e-05 -0.074824 0.005972 0.070609 0.027927 -0.006631 -0.00764 -0.002624 0.043735 0.016159 -0.111709 0.06007 0.066745 -0.058314 0.072014 -0.002591 -0.051288 -0.09555 -0.081499 -0.007816 0.054098 -0.028806 -0.019936 0.048478 0.074473 -0.080445 0.067798 -0.019584 0.080093 0.046721 0.026522 -0.037588 -0.081147 0.054098 -0.096955 0.054801 -0.029859 0.027927 -0.03267 -0.046019 -0.067798 0.017125 -0.06007 0.081499 -0.053044 -0.006587 0.028981 0.017125 0.043735 -0.085714 0.038642 0.030738 -0.071311 -0.006104 0.005423 0.089227 -0.020375 0.027927 0.010187 0.011592 0.083606 0.03548 -0.058314 0.077986 -0.015018 0.012032 -0.025468 -0.134894 -0.02459 -0.004786 0.033548 0.03425 -0.027927 -0.007597 -0.022482 0.080093 -0.012207 -0.00404 -0.010407 -0.065691 -0.011768 -0.032845 -0.025644 -0.036007 0.042681 -0.130679 0.000403 -0.048829 0.014403 0.099766 0.010758 0.031967 0.019936 -0.002009 0.012734 -0.016159 -0.040398 0.031089 -0.07377 -0.085714 -0.130679 -0.006411 -0.072365 -0.101873 -0.030035 -0.036534 0.022658 -0.009573
caterpillar 0.009676 0.059862 0.025158 0.122821 0.005999 -0.059862 -0.000867 0.115596 0.037414 0.055734 0.105791 0.168234 0.056766 -0.019997 -0.03406 0.001129 -0.034576 -0.009353 0.03535 0.00787 -0.046703 0.020255 -0.030576 0.011224 0.023351 -0.043865 -0.057798 0.041026 0.0209 0.014643 -0.049025 -0.064507 -0.131594 -0.004128 0.020126 0.024771 0.072248 0.083601 -0.016772 0.043349 0.061668 -0.003403 0.003693 -0.020513 -0.033802 0.076892 -0.051089 0.026061 -0.034318 0.002161 -0.033027 0.045155 -0.033544 0.034318 0.053412 0.017675 0.054702 0.051605 0.064765 -0.023351 -0.074312 -0.014643 -0.107339 -0.025158 -0.07586 0.018707 -0.043865 -0.033802 -0.075344 0.082569 -0.062959 -0.095986 0.020513 -0.00916 0.049799 0.042574 0.028641 -0.108887 0.027351 -0.064507 -0.002193 -0.034318 -0.07844 0.001395 0.090826 -0.057798 -0.01703 0.091858 -0.061152 -0.035866 -0.032511 0.092374 -0.018578 0.021803 -0.069151 -0.088761 0.135206 -0.029802 0.116628 -0.012321 0.008386 -0.121273 0.026448 0.003935 -0.059862 -0.077408 -0.023093 0.000123 -0.031479 -0.03664 -0.022706 -0.049283 0.043865 0.03664 0.03535 -0.094954 0.031221 -0.005161 -0.041542 0.01245 -0.03793 -0.044381 -0.079988 0.006902 -0.067087 0.083085 -0.00258 -0.028899 0.015288 0.028125 -0.045929 0.134174 -0.00845 -0.050057 -0.036898 -0.07586 -0.125401 -0.024771 -0.055476 -0.068635 0.059088 0.01832 0.043349 -0.068635 0.041542 -0.05883 0.035866 0.030447 -0.007322 -0.041542 -0.018578 -0.136238 -0.044639 0.016385 -0.07586 0.106823 -0.03922 0.110952 -0.109403 -0.011031 0.056766 0.026061 0.030318 0.025416 -0.005806 -0.021545 0.063733 -0.095986 0.038188 0.061668 0.064507 0.05238 0.073796 -0.07586 0.135206 -0.025545 -0.049541 0.054702 -0.004515 -0.064765 -0.165137 0.001322 0.064765 -0.033544 0.145527 -0.07328 -0.022835 0.124369 0.05883 0.031608 -0.031221 0.068635 -0.036898 -0.05496 0.018449 0.022577 0.01045 -0.138303 0.043865 -0.150688 -0.033027 0.029931 -0.029673 -0.037156 -0.090309 -0.010708 0.037672 -0.003935 0.009353 0.021416 0.049541 0.029415 0.001661 0.079472 0.011482 -0.015159 -0.031092 0.05238 -0.139335 -0.018965 -0.062959 0.016256 0.018836 0.03793 0.107855 -0.055218 -0.013417 -0.012127 0.03664 -0.030576 0.00208 -0.028125 -0.020513 0.000984 -0.008257 -0.059346 -0.017933 -0.05496 -0.000117 -0.019094 0.065023 -0.079988 -0.09547 -0.015998 0.027996 -0.058314 -0.088761 -0.006289 -0.038446 -0.006354 -0.101147 0.110952 -0.059862 0.016449 0.001306 -0.015869 0.066055 -0.00916 -0.002758 -0.01961 0.016127 -0.025416 -0.029802 0.087213 -0.013288 0.018707 -0.0249 -0.043091 0.047993 0.071732 -0.004322 -0.046961 -0.050057 -0.0209 0.034834 0.004709 -0.054444 7.5e-05 0.050057 0.004128 -0.091342 -0.043865 0.0209 -0.015095 -0.075344 -0.067603 0.047477 -0.085665 0.072764 -0.043865 -0.021545 -0.009224 -0.057282 -0.062701 -0.028125 -0.076892 0.000129 0.042833 0.116628 -0.065281
cattle 0.010534 0.060929 -0.107623 0.040145 0.027902 0.039575 -0.075734 0.042138 0.042992 -0.026194 0.088831 -0.117303 -0.100789 -0.05979 -0.070325 -0.023916 -0.06036 0.177663 -0.075734 -0.058936 -0.007901 -0.086554 0.027617 0.102498 -0.006548 -0.025482 -0.034451 0.053527 0.085984 -0.034308 -0.084276 0.026479 0.059221 -0.003078 -0.049541 0.07004 0.007794 -0.057228 0.068616 -0.003861 -0.046693 -0.041284 0.00968 -0.001584 -0.056089 -0.036444 0.017368 0.046124 0.030892 0.026051 0.014022 -0.137233 0.02235 0.026479 0.000841 -0.068901 -0.059506 -0.023204 0.055804 0.014948 -0.012527 -0.104206 -0.046409 -0.014236 -0.012812 -0.053527 0.012029 -0.007652 -0.047548 -0.028614 0.042707 -0.085984 -0.018649 -0.003595 -0.118442 -0.038437 -0.033027 -0.035447 0.023204 -0.036301 -0.011958 -0.032742 0.030749 0.016015 -0.004004 0.070325 -0.023774 0.08997 0.035162 -0.015232 -0.07004 0.086554 0.045839 -0.072887 -0.017083 -0.041853 0.052103 0.055235 0.15033 -0.096803 0.028329 -0.074596 0.013097 -0.006513 0.039006 -0.093387 -0.018364 0.005623 0.010677 0.016015 -0.011602 0.028614 0.014876 0.09965 -0.003808 0.050964 0.014876 -0.073457 -0.048686 -0.017012 -0.058936 0.033312 -0.122997 -0.07004 -0.007865 -0.027902 0.037582 -0.042707 -0.017083 0.058936 -0.062353 -0.046409 0.02235 0.020215 0.016229 0.027048 -0.029753 0.052388 -0.019788 0.054381 0.013382 -0.102498 0.082568 0.004271 -0.039291 0.049825 0.075734 -0.053811 -0.070325 0.062922 0.075734 -0.002758 -0.02961 -0.009182 -0.076873 0.064346 -0.048402 -0.05552 -0.078582 -0.026479 -0.055235 0.084845 0.042992 0.01146 0.042423 -0.007616 0.054665 0.06036 -0.009182 0.027475 -0.036301 0.010606 -0.008399 -0.041284 0.028756 -0.096234 0.063492 0.011033 -0.057797 0.074026 -0.105345 0.015802 0.011033 0.012741 0.108761 0.064346 0.015517 0.043561 -0.020927 0.181079 -0.040145 0.033739 0.049825 -0.057228 0.05552 -0.063492 0.072602 0.019645 -0.053811 -0.049256 0.046124 -0.145774 0.040714 -0.040145 -0.009396 -0.008826 0.041568 0.026763 0.111039 0.011389 -0.056374 0.02292 0.015944 -0.066054 -0.035732 0.011104 -0.072887 0.043277 0.025197 -0.035305 0.0121 0.0447 0.103067 0.009253 0.09965 -0.027048 0.117303 0.063492 0.037582 0.010463 0.036159 -0.051534 -0.020072 0.170829 -0.104775 -0.09965 0.066339 -0.007509 -0.034166 0.015375 0.045839 -0.033596 0.09054 -0.006833 0.052388 -0.025482 0.021354 0.004733 -0.029041 0.088831 -0.015517 0.075165 -0.126983 0.003363 -0.043561 -0.05552 0.057513 0.025482 -0.05011 -0.036301 0.00783 -0.020642 0.096234 0.078582 0.075734 -0.060644 -0.056943 -0.084276 -0.004289 0.02776 -0.053527 0.031888 -0.017012 -0.072318 0.011389 -0.086554 0.029468 0.027048 0.071179 0.137802 -0.007011 -0.033169 0.038152 -0.066054 -0.032742 -0.014805 -0.008364 0.072602 0.053527 0.108761 -0.093387 0.016229 0.028472 0.044131 0.068332 0.111609 -0.024058 0.04043 0.043561 0.002002
chair 0.038879 -0.122877 0.052799 0.000705 -0.000615 -0.082558 0.067838 -0.046399 0.078078 -0.030879 -0.00712 0.0152 -0.022719 -0.069118 -0.00516 0.057919 0.073598 -0.00324 0.0176 0.0164 0.032479 0.078718 -0.051839 0.0094 0.040799 -0.088318 -0.069758 0.051199 -0.101117 -0.058559 -0.101757 0.035519 -0.031039 0.046399 0.00197 -0.01864 -0.078398 0.110717 -0.036959 -0.044799 -0.109437 0.035839 0.01416 -0.042559 -0.058559 -0.01536 -0.086398 0.034079 0.070398 0.081598 -0.098558 0.00221 0.050879 -0.01088 -0.00772 0.0172 0.022879 -0.035679 0.074558 -0.041599 -0.095358 0.00268 -0.021439 0.050239 -0.00092 0.01656 -0.071358 0.035199 0.038239 0.052799 0.110717 -0.096638 0.029119 0.0072 -0.124157 -0.087038 -0.00648 0.050879 0.050239 -0.064638 0.089598 -0.032959 0.01296 0.028319 -0.01136 0.029599 -0.01952 -0.127357 0.031199 -0.00932 0.060478 -0.062718 0.073598 -0.00416 -0.00888 0.065278 0.042239 -0.020639 -0.0086 -0.039999 -0.062398 -0.129277 0.000502 0.00732 -0.00294 0.065278 -0.065918 0.00584 0.00952 -0.024799 -0.108797 -0.065598 0.116477 -0.075518 -0.036159 -0.026879 0.01256 0.050559 0.065918 -0.00231 0.00109 -0.072638 -0.0128 0.00239 -0.024319 -0.023519 -0.01176 -0.00096 0.027999 0.069438 0.043839 -0.033599 -0.074558 0.01576 -0.022079 0.181755 0.072318 0.024479 0.01352 0.0116 -0.00107 0.01776 -0.01832 -0.037919 -0.01952 0.061438 -0.01592 -0.035359 0.145916 0.123517 0.103037 0.080958 0.01952 0.090878 0.114557 0.01208 -0.080638 -0.022079 -0.047679 -0.0164 -0.01864 -0.056319 0.082558 0.047359 0.046079 0.055679 -0.034239 -0.052159 0.024959 0.01688 0.100477 0.064958 -0.084478 0.023999 0.00336 -0.174076 0.094718 -0.061118 0.053119 0.048639 -0.025279 -0.024159 0.080958 -0.034879 -0.00188 0.01776 0.01944 0.034399 0.054079 -0.034399 0.074878 -0.049279 -0.00728 0.129917 0.01424 -0.035679 -0.056959 -0.061118 0.085758 0.000156 -0.132477 0.047679 -0.01384 -0.118397 -0.023679 -0.058879 0.095998 0.048639 -0.034079 0.019839 -0.021279 0.01544 -0.051519 -0.00768 0.025759 -0.021439 -0.088958 -0.034719 0.035679 0.049599 0.025919 -0.026079 -0.01112 0.094078 0.059199 0.033439 0.094078 0.01312 0.055359 -0.01344 -0.151036 -0.00544 -0.051199 -0.00964 -0.069118 0.030559 -0.00512 0.021919 0.040799 -0.01288 -0.00328 -0.073278 -0.031199 -0.039839 0.029919 0.021119 0.01432 -0.047359 -0.058879 -0.060798 -0.0096 0.042239 -0.088318 -0.046719 -0.031999 0.042239 -0.019839 0.058559 -0.040959 -0.024479 -0.00948 0.000249 0.01168 -0.088318 0.030239 -0.00394 0.0104 0.064318 -0.046399 0.048639 -0.030559 0.095998 0.064958 0.052479 -0.060478 -0.043199 0.00772 -0.021279 -0.070718 0.0072 0.118397 0.023199 0.042879 -0.00928 0.134397 0.088958 -0.026879 -0.081918 0.043519 0.00127 -0.093438 -0.023519 -0.046079 0.024159 -0.029599 -0.076798 0.064958 0.085758 0.039359 0.056319
chimpanzee 0.024487 -0.028896 -0.017175 0.052919 -0.00824 0.006064 0.059882 0.038064 0.06406 -0.096089 0.073344 -0.059418 -0.0752 -0.033655 -0.077986 0.020077 -0.077521 0.047581 -0.064524 0.000116 0.066381 -0.028316 0.031101 -0.088198 -0.047813 0.015087 -0.045027 0.048741 0.137403 0.015899 -0.00911 -0.009226 -0.097018 -0.004642 -0.062203 0.004091 -0.087734 0.071023 0.014042 0.087734 -0.053151 0.00412 0.013172 0.212604 -0.021005 -0.011663 0.03203 -0.017059 0.031101 0.031566 -0.088662 -0.083092 0.00161 -0.099803 -0.002974 0.051294 -0.00177 -0.138332 -0.004874 0.073344 0.012359 0.054544 0.086341 -0.031334 0.008588 -0.063131 0.083092 -0.038529 -0.031566 -0.047348 -7e-06 -0.045956 -0.00911 0.026924 -0.037136 0.085413 -0.030637 -0.004149 -0.074736 -0.061274 0.0188 0.057793 0.017175 -0.044099 -0.093768 0.039689 -0.017988 0.031798 0.058953 -0.01497 -0.037136 -0.017059 -0.02321 0.056168 0.02762 -0.021933 0.044099 0.018452 0.004932 -0.021353 0.102588 -0.126263 0.056865 -8.7e-05 0.049669 -0.098875 0.030869 -0.002626 -0.004526 0.020541 -0.124406 0.050598 -0.017524 0.001509 -0.015667 -0.086341 0.030173 -0.070094 0.016711 -0.081235 -0.034815 -0.055936 -0.005454 -0.037832 -0.024719 0.099803 0.08727 -0.017291 0.05524 -0.033655 -0.047116 0.009632 -0.108159 0.046652 0.016131 -0.103052 -0.039689 0.022514 -0.024487 -0.051758 0.097018 -0.024719 -0.045956 0.06963 0.06406 0.127191 -0.034815 0.016711 0.064988 -0.044099 0.119764 0.0188 -0.087734 -0.007311 0.021121 -0.054079 -0.037832 -0.005425 0.010386 -0.062203 -0.089126 -0.015435 0.04642 0.039457 -0.032262 -0.035743 0.041314 0.005512 0.003249 0.046652 0.028896 0.020541 0.020657 0.087734 -0.024603 0.048277 0.021005 0.102588 0.037832 -0.061739 -0.065916 0.062667 -0.028548 -0.000729 -0.002727 -0.010561 -0.046884 0.09284 0.017756 0.099803 -0.01764 -0.096089 -0.01938 0.002089 0.028084 -0.000849 -0.00309 -0.077057 0.001255 -0.052223 -0.046652 -0.011373 -0.088662 0.085413 0.038064 -0.016363 0.08402 -0.055936 -0.030637 -0.095625 -0.151329 -0.000957 -0.0188 -0.036904 -0.033887 0.039921 0.052919 -0.001436 0.041314 -0.035511 0.023674 0.003322 -0.000881 -0.132761 0.044563 -0.089126 0.00618 0.014042 0.082628 0.002074 0.049437 -0.094697 -0.064988 0.056168 -0.005657 -0.005483 -0.049205 0.038529 -0.010154 0.025415 0.070558 -0.198678 -0.020309 0.024138 0.018104 0.062203 0.03319 0.043171 0.035047 -0.073808 -0.029477 0.106766 -0.055472 0.005425 0.035743 -0.023674 0.024835 0.002887 -0.024835 -0.061274 -0.051294 0.014738 0.012011 0.057097 0.095161 0.012475 -0.121621 -0.013404 -0.005425 0.030405 -0.068237 0.032262 -0.045492 -0.027852 0.083556 0.006818 -0.0028 0.049902 -0.086805 -0.110944 -0.00111 -0.020657 -0.047348 -0.048277 -0.018104 -0.086341 0.033422 -0.041546 0.140189 0.017524 -0.099339 0.054544 -0.053383 0.019845 -0.013926 0.062667 -0.046188 0.119764 -0.114193 0.038761
clock -0.024921 0.01651 0.100931 0.022585 -0.005919 0.004205 0.019002 -0.111523 0.042989 -0.105292 -0.047039 -0.144543 -0.056384 0.05545 0.013473 -0.053581 -0.033955 -0.062615 0.101554 -0.13146 -0.084732 0.093455 0.076944 0.063549 0.068533 0.037382 -0.098439 -0.031463 0.018925 -0.036292 -0.010358 -0.042055 -0.047039 -0.094701 -0.025856 -0.089716 0.017756 -0.033021 -0.01137 0.085355 0.067287 0.030217 0.002112 -0.044858 -0.02975 0.063861 -0.005101 0.050466 0.006581 -0.004225 0.014018 0.001597 -0.007437 -0.053581 -0.083486 0.066041 0.016588 -0.102177 -0.074452 0.094701 -0.005179 -0.023831 -0.033799 -0.058565 0.089716 -0.045481 0.006581 0.046416 -0.057319 0.032553 -0.05763 0.018847 -0.030529 -0.115884 -0.037226 -0.030996 -0.000623 -0.02056 0.100931 -0.022429 0.031463 -0.015965 0.092209 -0.059188 0.03707 0.072895 0.070091 0.026012 0.000584 0.07601 0.01542 -0.001178 -0.058876 0.02165 -0.067599 -0.035046 -0.066976 -0.020872 0.005958 -0.013551 0.022273 -0.10903 0.089716 0.031307 0.03707 -0.091586 0.036136 -0.032865 -0.019314 0.020716 0.07196 -0.017367 -0.056696 0.016277 0.052958 0.037849 0.006075 -0.019392 -0.038316 -0.035201 -0.114638 -0.001256 0.008099 0.054827 0.077567 0.047973 0.052646 -0.085355 0.005724 0.023831 0.090963 -0.104669 -0.04517 -0.029438 -0.077879 0.027413 0.062615 0.120245 -0.062615 0.016277 0.037382 -0.03084 0.053581 0.046727 0.009657 0.047662 -0.055138 0.009501 0.036603 0.017756 0.000823 0.044858 0.054204 -0.008255 -0.026323 0.082863 0.028192 0.02056 0.003407 -0.091586 -0.094078 -0.011915 -0.030684 -0.110277 0.042366 -0.071026 -0.039718 0.00145 0.015264 -0.069156 -0.049842 -0.010436 0.039407 0.006386 -0.082863 -0.005997 0.0257 -0.09657 0.031619 -0.011137 -0.097816 -0.052023 0.054827 0.006347 -0.085355 0.050466 0.033021 0.036915 0.026167 -0.106538 0.005335 0.044235 0.032242 -0.005841 0.028815 -0.012694 -0.032553 -0.015965 -0.021339 -0.014018 0.018535 0.011215 -0.006152 0.071337 0.244228 -0.008177 0.023519 0.021183 0.070714 -0.01433 -0.114638 -0.011137 -0.000319 0.033176 0.10903 -0.020716 0.007515 -0.020716 -0.051712 0.010514 0.02975 0.016432 -0.040809 -0.014953 -0.100931 0.019937 -0.033021 0.076321 -0.005218 -0.009501 0.087847 -0.120868 0.052335 -0.041432 -0.111523 -0.106538 0.060746 -0.017679 -0.020404 -0.009813 0.011838 -0.031152 0.025077 -0.158873 -0.023208 -0.041432 -0.071649 -0.016043 -0.079125 -0.051089 -0.077567 0.060123 0.017133 -0.014096 -0.100308 -0.115884 0.070714 -0.114638 -0.016121 -0.070403 0.030529 0.001762 -0.048596 -0.060434 -0.089093 0.089093 0.028348 -0.010592 -0.022741 0.042678 -0.00736 0.08847 0.011215 -0.003271 0.099062 -0.058565 -0.008839 -0.071337 -0.028659 0.019392 -0.050154 -0.00146 0.0514 0.063861 0.035357 -0.03489 -0.001241 0.021339 0.08224 0.050466 0.076321 0.050777 -0.052958 0.005646 0.09034 -0.049842 -0.1028 0.028348 -0.066664 0.007593
cloud 0.148375 0.039293 -0.037534 -0.09618 -0.029763 0.013195 -0.016641 -0.044864 0.074774 0.137819 -0.023605 0.046917 0.038413 -0.104977 -0.014222 0.143683 0.033428 0.052195 0.020673 -0.109668 -0.056594 -0.046917 0.078 -0.021406 0.018254 -0.014955 0.016714 0.055714 -0.035188 -0.011583 -0.018913 0.051902 0.023019 -0.059233 -0.049556 -0.07624 -0.078 -0.079172 0.039293 0.01019 0.009897 -0.036067 0.04897 -0.044571 -0.02859 -0.034455 -0.023752 -0.173593 0.039586 0.069496 0.033575 0.003812 -0.059233 -0.015908 -0.037827 -0.002987 0.051022 0.042812 -0.035481 -0.129608 -0.030936 0.044864 0.016934 0.053661 -0.073601 0.112014 0.014222 0.100285 -0.028737 -0.035774 -0.089729 -0.091488 0.013635 -0.043105 -0.070375 -0.008357 0.030496 -0.075654 0.018913 0.079759 0.1343 3.2e-05 -0.035188 -0.14251 0.060406 -0.071548 -0.050729 -0.042225 -0.008101 0.125503 0.036654 -0.052488 -0.081518 -0.007441 -0.035481 0.049263 0.082691 -0.029323 0.086796 -0.059233 0.019793 -0.079172 -0.022139 -0.044571 -0.092075 0.036654 0.046331 0.039879 -0.035334 -0.105563 -0.021699 0.06803 -0.011803 0.043398 0.001159 0.095593 -0.000328 -0.052782 -0.001888 0.208781 0.010043 -0.035334 -0.082105 0.035628 0.001787 -0.075654 0.024338 0.087969 -0.001879 -0.046917 -0.063045 0.112014 0.017081 0.02038 0.03812 -0.033868 0.051902 -0.054541 0.022872 -0.023165 -0.039586 -0.107909 0.058646 0.017667 0.095007 -0.060406 0.008687 -0.083864 -0.043985 0.024338 0.102044 -0.058646 -0.071548 -0.015761 -0.054834 0.006011 0.085037 -0.103804 -0.093248 -0.005315 -0.031376 -0.032695 -0.01906 -0.041052 0.006818 0.023458 -0.109668 0.095593 -0.084451 0.011656 -0.042225 -0.022579 -0.025804 -0.023019 0.05718 -0.03812 0.060992 -0.010043 -0.020819 -0.046037 -0.083864 -0.000765 -0.004289 -0.059819 -0.031229 0.053661 -0.053661 0.107909 -0.047503 0.027271 0.034601 0.010336 -0.023019 -0.043398 0.025658 0.005975 -0.025951 -0.04721 0.002163 -0.041052 0.110841 0.007624 0.013635 -0.026977 0.01063 0.034161 0.0195 0.040173 0.039293 -0.06715 -0.126089 0.026244 -0.032989 0.0092 -0.024338 -0.021259 -0.052488 0.02815 -0.087969 -0.006048 -0.005205 -0.01906 0.030496 -0.074481 -0.009054 0.020966 -0.003959 0.027417 0.027417 -0.06627 -0.032695 -0.04721 0.028737 -0.041639 0.00843 0.009677 -0.030643 0.02903 -0.010556 -0.02771 0.036654 -0.025511 0.023898 -0.043985 -0.059233 -0.145443 0.044571 0.026977 0.00909 0.060406 -0.107909 0.036361 0.050436 0.174766 -0.052195 -0.075654 -0.069789 0.129608 -0.018913 -0.047503 0.035188 -0.00046 0.023458 -0.020966 0.03724 0.078 0.013782 0.001933 -0.091488 -0.053955 -0.02903 -0.035041 0.023165 0.019207 0.021992 0.032255 -0.0563 0.011803 0.00997 -0.050729 0.016861 0.022725 -0.006928 0.012316 -0.074774 -0.005535 0.018913 0.084451 0.036801 -0.010996 0.056594 0.079172 0.012022 -0.005535 0.012389 -0.011216 0.119052 0.025804 -0.045158 -0.000829
cockroach -0.033734 0.015615 -0.013258 0.066879 -0.023128 0.023864 -0.028283 0.015467 0.050674 0.032555 -0.008839 -0.152023 0.040952 -0.104884 -0.030051 0.058629 0.025485 -0.008875 0.012227 0.072182 0.015983 0.030346 0.015394 -0.050969 -0.098992 0.015762 -0.012374 0.017751 0.040657 0.02681 -0.037122 -0.00906 -0.020329 0.022833 -0.001924 0.093689 0.047139 0.114901 -0.018193 0.089564 0.014584 -0.094278 0.093689 0.112544 -0.023422 -0.04655 0.071298 -0.067762 -0.004972 0.022686 -0.080726 0.003204 0.038595 0.003425 -0.031524 -0.037711 0.060102 -0.094867 0.045077 0.001915 0.036091 0.026516 -0.035207 0.044193 0.016572 -0.095457 0.050674 0.027547 0.010091 0.08485 0.055683 0.032997 -0.012227 -0.016941 -0.048318 -0.003535 -0.058924 -0.083672 0.017162 -0.114901 -0.017383 0.000907 0.016425 -0.098992 -0.037417 0.055978 -0.065405 -0.001261 -0.049201 -0.027989 0.022244 -0.020623 -0.047728 -0.103706 -0.068941 0.03123 0.068646 -0.001897 -0.068646 -0.027252 0.029462 -0.127865 0.055094 -0.076601 -0.043604 -0.021654 0.017603 -0.002688 -0.049496 -0.058335 -0.081904 -0.117258 0.096635 0.048612 -0.060986 -0.013405 -0.082493 -0.058629 0.002375 -0.007145 -0.09251 -0.08485 -0.132579 -0.00766 -0.053915 0.019298 0.103706 -0.055978 0.015909 0.018119 -0.060986 -0.038595 -0.096046 0.042131 -0.081904 0.051264 0.09251 0.051558 0.043604 0.145542 0.011785 -0.061281 -0.017383 0.065995 0.053621 -0.090153 -0.030051 0.039184 0.002596 0.003351 0.076601 0.001464 -0.130222 -0.033881 0.047434 -0.007623 -0.078369 -0.039774 -0.00221 -0.099581 0.067173 0.017677 -0.002744 -0.018561 -0.062459 -0.06953 0.127275 0.004972 0.044193 0.043014 -0.02136 0.057745 0.003867 0.045666 -0.078958 0.022096 -0.002016 -0.019592 0.008507 0.063343 -0.020181 -0.040363 -0.011637 0.022096 0.056861 0.02136 -0.043309 0.0137 -0.064816 0.021065 -0.004861 0.005082 -0.005487 0.10842 0.032997 0.05421 -0.032555 -0.060102 -0.140828 0.019887 0.112544 -0.015983 -0.042131 0.017824 -0.016499 -0.051853 0.010606 0.04655 -0.036238 -0.014363 -0.133168 0.004419 -0.028873 -0.126097 0.022391 0.037711 -0.005671 0.05038 0.037417 0.061281 0.043309 0.014657 -0.045371 0.014142 -0.053915 0.006297 0.091921 0.041541 0.032408 -0.038595 0.025926 -0.122561 0.086618 0.097813 0.030493 -0.07719 0.044487 0.066289 0.06187 0.031377 0.098992 -0.055094 -0.063638 0.007071 0.136114 -0.076012 0.008839 -0.011048 -0.08485 -0.095457 -0.118437 -0.032408 0.055683 0.012742 -0.053915 -0.094867 -0.074539 -0.03889 0.016351 -0.045077 0.083672 0.016057 -0.08544 0.023128 0.082493 0.061281 -0.068941 0.032703 -0.041541 -0.021802 -0.078369 0.052442 -0.028136 -0.038595 0.042425 -0.023864 -0.049791 0.041247 -0.009796 -0.10842 0.026663 0.103706 0.043309 0.021065 -0.039479 -0.030788 -0.017603 -0.012227 0.002375 0.031966 -0.109009 0.089564 -0.048612 0.040068 -0.026368 -0.05804 0.029904 0.009133 -0.074539 0.025926
couch 0.073118 -0.094366 0.000204 0.083117 0.074368 0.001592 0.01992 -0.050308 0.119988 0.018045 -0.003593 -0.061556 0.023748 -0.00539 -0.059994 -0.010077 0.020467 0.027185 0.075305 0.068118 0.029216 0.030778 -0.008749 -0.014686 0.041558 -0.044996 -0.015702 0.093116 -0.050933 -0.093116 -0.051245 0.031403 -0.04812 0.033747 -0.094991 -0.082492 0.028747 0.018983 -0.002383 -0.004179 -0.093116 -0.043121 0.083117 -0.010624 0.031403 0.089991 -0.02406 0.009413 0.071243 0.013749 -0.041871 0.034684 0.008749 -0.056557 0.03859 -0.018201 0.027185 -0.000622 0.048433 0.018592 -0.028747 0.035153 -0.044683 0.128112 0.052182 0.044683 -0.029685 -0.025154 0.003867 0.05062 0.177483 0.016092 0.011093 0.064681 -0.031716 -0.01992 0.022185 -0.064681 0.044683 -0.018123 0.004023 0.052495 0.008671 0.013514 -0.02156 0.006952 0.115614 0.059994 0.057494 0.01039 -0.07468 0.002695 0.041871 -0.081242 0.016248 -0.00621 0.093741 -0.030778 -0.026872 -0.075618 -0.007304 -0.126238 0.129362 -0.025779 -0.025935 -0.041558 0.065931 -0.045933 0.035778 -0.084992 -0.087491 -0.012499 0.126863 -0.104365 0.10374 -0.048745 -0.064681 0.05312 0.002812 0.047808 -0.078117 0.010155 -0.013592 -0.013358 -0.01992 -0.069993 -0.015389 0.03609 -0.066868 0.088741 -0.029685 0.02531 -0.05562 0.066556 -0.049058 0.111864 0.021404 0.005429 0.003144 0.021717 0.012889 -0.005117 0.068743 -0.060619 0.013671 0.050308 -0.056869 0.008866 0.052807 0.034372 0.134987 0.128737 -0.010624 -0.013046 0.020311 0.013671 -0.039996 -0.073118 -0.001152 0.034528 0.017733 0.011483 0.030153 -0.035465 0.029685 0.031247 0.030934 0.051245 -0.000698 0.019451 0.029372 -0.041246 -0.039371 0.065306 -0.055932 -0.063744 0.069993 -0.021092 -0.052495 0.09749 -0.031247 -0.076867 0.063744 -0.014608 0.052495 0.059682 -0.108114 0.056557 0.136237 -0.083117 0.109989 -0.041558 -0.001592 0.033903 0.062181 0.117488 0.005195 -0.031091 -0.020154 -0.059994 -0.087491 0.042808 -0.096241 -0.004023 0.069368 -0.026872 0.039059 0.026404 -0.061556 0.009843 -0.103115 0.07843 -0.178732 -0.026404 0.073743 -0.086242 -0.044683 0.098115 -0.095616 -0.029997 -0.079367 0.029997 0.026247 0.019139 -0.046245 -0.002695 0.013514 0.028435 0.047495 -0.009804 -0.009374 -0.048745 0.039215 -0.077805 -0.049683 0.066556 0.033122 0.026091 -0.024216 0.038277 0.065619 -0.046245 -0.022498 -0.045933 -0.036403 0.080617 0.008671 0.050933 -0.070306 -0.118738 0.022185 0.043121 0.040309 0.066868 -0.049683 0.044996 -0.128112 0.024529 0.012108 -0.038434 -0.07218 -0.005468 -0.082492 -0.020779 -0.000187 0.113114 -0.01492 -0.008749 -0.126863 -0.044058 -0.049995 0.117488 0.068431 0.02656 -0.03859 0.063431 -0.051557 0.040933 0.004453 -0.055932 0.103115 -0.037965 0.046245 -0.020935 0.008944 0.00042 -0.05062 -0.066244 0.023435 0.042183 -0.054057 0.022654 -0.051557 -0.007734 0.09749 -0.131237 0.000376 0.025466 0.027341 -0.000586
crab -0.051371 0.041599 -0.058909 0.056955 0.05863 0.033782 0.028059 0.01026 0.000216 0.017729 -0.029315 -0.02066 0.007224 -0.111676 -0.077056 0.009841 -0.039645 0.005933 -0.068122 -0.025127 -0.030571 0.01724 0.044391 0.025546 0.036853 -0.006701 0.005095 0.144062 0.073148 0.069239 -0.05165 0.035736 0.06896 -0.014448 0.01738 0.006945 -0.015984 -0.013541 0.040203 0.0275 0.092691 -0.019404 0.074823 0.003176 -0.00438 -0.094924 0.011656 0.018008 0.094366 0.054442 -0.073706 0.032805 0.042158 -0.050254 -0.029454 -0.040762 -0.047183 -0.023871 0.034201 -0.083757 -0.056955 0.030013 0.001256 -0.031409 -0.001195 -0.035317 -0.075381 -0.060305 0.011168 0.024848 0.021637 -0.014378 -0.022335 0.021916 -0.004886 -0.021358 -0.105534 -0.038528 -0.03797 -0.112792 0.036853 -0.041878 0.008585 -0.064772 0.093808 0.021218 -0.038807 0.002722 0.008062 -0.131777 0.043554 0.035457 -0.010121 -0.005444 0.031269 -0.00212 0.0104 -0.006177 0.012773 -0.01389 -0.09995 -0.056675 -0.063934 0.000606 -0.083757 -0.028059 0.054163 -0.044949 0.073148 0.007503 -0.100508 -0.091016 0.046625 0.051371 -0.023591 -0.005828 0.079848 -0.094924 -0.012982 -0.034759 -0.067005 0.000364 -0.022475 -0.00855 0.018426 -0.073148 0.062818 0.088224 -0.04132 0.055838 -0.061142 0.005793 -0.057513 0.060026 -0.028756 0.004676 -0.005444 -0.006805 0.039366 0.041878 -0.005444 -0.002408 -0.036295 0.142945 0.075939 -0.091574 -0.067843 -0.025546 -0.066447 0.1033 0.058351 -0.017659 -0.078731 0.069797 -0.016751 -0.053046 -0.003612 -0.020241 -0.111117 -0.007782 -0.05165 -0.005025 0.060026 -0.011028 -0.058909 -0.084315 -0.006003 -0.044949 -0.025406 0.069239 -0.087665 0.033224 0.010121 0.073148 -0.098833 -0.053884 0.022614 0.089341 0.010051 0.091016 0.049137 -0.075381 0.010679 0.044391 -0.014308 -0.046625 0.093808 -0.034759 0.054163 0.043554 -0.056675 -0.05863 -0.077056 -0.051092 -0.004607 0.063097 0.096041 0.034201 -0.009004 -0.03085 -0.018426 -0.001553 -0.056955 -0.098833 -0.022894 -0.060026 0.063655 -0.003612 0.067843 0.003944 -0.122285 0.107767 -0.054442 0.00869 0.023452 0.024708 0.040482 -0.026802 0.062259 0.047462 0.100508 -0.009143 0.041878 -0.080965 0.023033 -0.088782 0.009283 0.105534 0.038528 0.065889 0.115026 0.004607 -0.053325 0.036015 -0.030013 -0.150762 0.06533 0.016402 0.009632 0.012703 0.092691 -0.012703 -0.053884 -0.069797 -0.107767 -0.104975 0.021498 -0.015704 0.050812 0.107209 -0.115026 -0.06896 0.053325 0.022754 0.037411 -0.110001 0.001378 -0.050533 -0.058071 0.082082 -0.015286 0.050254 -0.058071 -0.030571 -0.007782 -0.010819 -0.111117 -0.03099 0.044949 -0.085432 -0.073148 0.091016 0.012075 0.102183 0.012703 0.001885 -0.147412 0.031269 0.010609 0.073148 -0.047741 0.026523 0.091574 0.042437 0.079848 -0.121168 0.031967 0.007189 -0.021777 0.139595 -0.008899 -0.111676 -0.030152 -0.009492 0.073706 -0.086549 0.02415 0.069518 0.066447 0.004397
crocodile -0.018575 0.017285 -0.087717 0.013416 -0.025928 -0.031604 -0.071722 -0.001588 0.036119 0.033281 0.041537 -0.116613 -0.07327 -0.036893 -0.040763 0.023735 -0.015093 0.035603 -0.05134 -0.048761 0.016383 -0.036893 0.082558 0.05392 -0.00416 -0.069658 0.011158 0.028121 0.165115 -0.040247 -0.007288 0.092877 -0.068626 0.000133 -0.014706 -0.057016 -0.087201 0.076882 0.027089 0.06424 -0.049277 0.007159 0.01793 0.101133 -0.037667 -0.098553 0.048245 0.041537 0.098553 -0.029153 -0.027218 -0.041537 0.114549 -0.072754 0.099069 -0.038441 0.013093 -0.08101 0.076882 0.098037 -0.02438 -0.017414 0.065788 -0.020897 0.018188 0.013674 -0.040763 -0.082558 0.036119 -0.022961 0.011223 -0.001028 0.01032 0.022445 -0.119708 0.021929 0.005773 -0.133124 -0.060628 0.01793 0.027734 0.020639 0.020252 -0.001354 -0.113001 -0.002757 -0.025541 -0.102165 -0.019736 -0.038183 0.026831 0.07843 -0.008095 0.022058 -0.030572 -0.053662 -0.001548 0.07843 0.060886 -0.027089 0.011803 -0.025928 0.066046 -0.019091 0.043859 -0.034055 0.049535 -0.007804 -0.003112 -0.045407 -0.050824 -0.049277 0.030314 0.127448 -0.067078 -0.076882 -0.045665 -0.066046 -0.065272 -0.046181 -0.0565 -0.005418 -0.073786 -0.033539 -0.072754 0.018962 0.06553 -0.020897 -0.062176 0.005869 -0.046439 0.042827 -0.131576 0.071722 -0.091329 0.045923 0.027347 -0.012255 0.050824 0.116097 0.025025 -0.076882 0.010255 0.029669 0.057532 0.035087 -0.114549 0.083074 0.023993 0.00645 0.08101 -0.046697 -0.130028 0.059854 0.05779 -0.029153 -0.114033 0.045665 -0.005644 -0.02438 0.035087 0.05779 0.026057 -0.069142 0.00674 -0.048503 0.101133 -0.05521 0.00416 -0.011223 -0.051598 0.090813 -0.024251 0.048761 -0.074302 -0.058822 0.127448 0.099585 -0.038441 0.01032 -0.082042 -0.030314 -0.093393 -0.002822 -0.010191 -0.016769 -0.012319 0.009933 0.009094 -0.007159 -0.058822 -0.021026 -0.06553 0.016254 -0.039989 0.032765 -0.043343 0.009352 -0.047213 0.005289 0.071206 -0.094941 0.015802 0.056758 -0.009223 -0.043085 0.106809 -0.00279 -0.014835 0.001314 -0.087201 -0.036893 0.094425 -0.090813 -0.072754 0.055984 0.056758 -0.030314 0.05908 0.063724 0.063982 0.052114 -0.048245 0.016318 0.010513 -0.005676 0.045665 0.095973 0.016512 0.039215 0.051856 -0.064756 -0.047471 -0.049019 0.065272 -0.050824 0.085137 0.097521 0.016898 0.050824 0.12074 -0.139316 -0.022574 0.017414 0.090297 -0.045149 -0.047987 0.004112 0.042569 -0.05521 -0.072238 0.034055 0.005192 -0.046439 -0.00133 0.020768 0.02567 -0.050824 -0.061144 -0.058306 0.088749 0.050308 0.054436 0.002306 0.06424 0.096489 -0.121256 0.069142 0.046439 0.031475 -0.090297 0.040505 -0.050308 0.039731 0.12848 0.046181 0.071722 0.052888 0.048245 0.045923 0.011932 0.003854 0.073786 -0.017414 0.001983 0.022445 -0.06811 0.096489 0.06295 0.053662 -0.092361 0.028637 -0.023735 -0.027734 0.001709 0.046181 -0.006579 0.036119 -0.037151 0.000806
cup -0.02846 -0.020517 0.008339 -0.029916 0.105896 -0.024091 0.036005 -0.008803 0.104308 0.07095 -0.017473 0.039446 0.03071 0.024356 -0.00728 0.053213 0.106955 0.078363 0.036534 -0.005725 0.044476 0.101131 -0.082069 -0.149313 0.05083 -0.03574 -0.062743 -0.023959 0.004054 -0.014693 -0.054007 0.009398 0.024753 -0.023959 0.048447 0.058508 0.031636 -0.003045 -0.072539 0.039182 -0.022635 0.001903 0.124957 0.016612 0.040505 -0.092659 0.108543 -0.032298 0.026209 0.10166 0.027798 0.050565 0.043153 0.03574 0.003359 -0.047124 0.032563 -0.045006 -0.00503 -0.041829 -0.01787 0.031769 -0.059302 -0.021709 -0.151431 -0.041299 0.097954 -0.008604 0.068832 -0.004103 0.092129 -0.041299 0.036269 -0.029916 -0.033754 0.007446 -0.008405 -0.089482 0.039446 0.002813 -0.027136 -0.062479 -0.011979 -0.01734 0.046594 -0.055331 -0.096365 0.046859 0.068303 0.066185 0.06089 0.000558 0.038123 -0.088423 0.075186 -0.037858 -0.038917 -0.013833 0.03018 0.02012 -0.070421 -0.005162 0.018267 0.016679 0.055331 -0.030313 0.012046 0.041035 -0.04024 0.036534 0.017208 -0.018267 0.106955 -0.069362 0.028724 0.01734 0.076245 0.062479 0.019723 -0.120192 -0.083658 0.059037 -0.055066 0.082069 -0.117015 0.000596 -0.047124 0.047653 -0.048977 0.004997 -0.013766 0.040505 -0.031372 -0.06645 0.003706 -0.041564 -0.076775 0.100072 -0.064332 0.189554 -0.00278 0.016745 0.084717 -0.020385 0.05639 0.073598 -0.007016 0.01509 -0.016414 -0.064597 -0.041564 0.056919 -0.007479 -0.08154 0.077834 -0.051889 -0.119662 -0.066979 -0.059566 -0.12231 -0.031901 -0.03521 0.012906 -0.077304 0.065391 -0.047388 0.047124 -0.022635 0.078363 -0.019061 -0.024488 0.08154 0.070421 0.044212 -0.072539 -0.023562 -0.043153 -0.031107 -0.025415 -0.088423 -0.012046 -0.034151 -0.088423 0.033357 -0.06142 0.051095 0.122839 -0.046859 0.008405 0.025415 0.028062 -0.076245 0.019194 0.028989 -0.055595 -0.084187 0.052683 0.088953 -0.006519 0.003144 -0.063008 -0.0458 -0.086305 -0.068832 0.05083 -0.025018 -0.01006 -0.05586 0.034416 -0.023562 -0.057713 0.027401 0.113309 0.01231 -0.001315 -0.047124 -0.030842 -0.166257 -0.038917 -0.083658 -0.075716 0.035475 0.060096 0.009795 -0.006983 0.022371 -0.053477 0.01734 0.003591 0.010523 -0.028989 0.065655 0.043682 -0.015024 -0.036269 -0.064067 0.047388 -0.0458 0.097954 -0.020517 -0.019458 -0.007644 0.090541 0.003011 0.026342 -0.01284 -0.135547 -0.025812 0.030445 -0.009134 0.005758 0.015553 0.056919 -0.045006 -0.068303 0.078363 -0.013899 -0.013833 -0.155667 0.036799 0.078363 0.066714 0.014097 -0.018399 0.094777 -0.06645 -0.08101 -0.15249 -0.016149 0.041299 0.02012 0.038917 -0.05136 0.050036 -0.046329 0.006751 0.032431 0.05586 -0.063273 -0.048712 -0.099542 -0.026606 -0.021576 0.006321 0.036269 0.032695 -0.00091 0.044741 -0.020253 -0.013502 -0.022503 -0.082069 -0.113309 -0.062479 -0.106955 -0.033887 0.018267 0.021312 -0.030842 -0.055066
dinosaur 0.050507 0.022132 -0.015961 0.050223 -0.023835 -0.060155 0.003618 0.033482 0.040576 -0.011563 0.090799 -0.021707 -0.028375 -0.123147 0.004168 -0.048805 0.001605 -0.013762 -0.014755 -0.041711 0.020714 -0.085125 0.019862 0.082855 -0.01738 -0.002837 -0.110662 -0.003458 0.095907 -0.101582 -0.051926 0.070086 -0.006633 0.034334 -0.009931 9e-06 0.032631 0.101582 0.059871 0.152089 0.024544 -0.053628 -0.00908 0.071221 -0.016528 -0.062141 0.020997 0.066113 -0.004611 0.085692 -0.101582 -0.064127 -0.049088 -0.056466 -0.030645 0.070937 0.002784 -0.157764 0.08172 0.002243 -0.027807 0.022132 -0.041427 -0.136767 -0.106122 -0.115769 -0.003636 -0.041427 -0.011634 -0.012627 0.017096 -0.058452 -0.084557 -0.021281 -0.048237 0.07718 0.011137 -0.002102 -0.066965 0.01362 0.046818 0.030219 0.014684 0.002926 -0.017521 0.014755 -0.045116 0.00337 0.012698 0.069235 -0.007448 0.016954 -0.030361 0.031922 -0.011279 0.012769 0.065262 0.072072 0.001702 -0.0681 0.048521 -0.030361 0.006881 -0.006562 0.03859 -0.031212 0.042562 0.029794 0.015393 -0.051075 -0.116337 -0.028091 0.017805 0.040576 0.010924 0.042279 -0.02043 -0.030787 -0.013833 -0.005781 0.000366 -0.093637 -0.000176 -0.002802 -0.080585 0.004132 0.082287 -0.032915 -0.124849 0.008477 -0.057885 0.030929 -0.005391 0.052493 -0.076612 0.071221 -0.019153 0.033057 0.016103 0.135632 0.03334 -0.066681 0.031212 0.124849 0.173654 0.076045 0.047953 -0.01589 0.048237 -0.00532 0.050507 -0.070086 -0.164574 0.080017 0.017167 0.006384 -0.045116 -0.047102 -0.010641 -0.035469 0.085692 -0.032489 0.07718 -0.040292 -0.022984 0.032915 0.072072 -0.039725 -0.082855 0.087394 0.01057 0.01738 0.033482 0.082855 -0.0072 -0.064978 0.007945 0.035752 0.039157 0.08172 -0.050223 -0.048805 -0.032631 -0.054763 -0.039725 0.014755 0.026956 -0.000167 -0.058452 0.016174 0.016386 0.0083 -0.043697 0.028517 -0.011634 0.057885 0.031922 -0.02426 -0.087394 0.007058 -0.011279 -0.078315 -0.107257 0.032205 0.000494 0.045116 0.086827 -0.006526 -0.062708 -0.012343 -0.078315 0.010002 0.00493 -0.091934 -0.017451 0.134497 0.085125 -0.032347 -0.00321 -0.030645 0.006207 -0.080017 -0.016386 -0.019437 -0.01362 -0.019295 -0.076045 0.013336 -0.070086 0.046535 0.013833 -0.123714 -0.012059 0.015039 0.044832 0.058452 -0.015181 0.051075 0.03859 0.059871 0.142442 -0.181599 -0.106122 -0.08172 0.061006 0.047386 -0.009151 0.118039 0.024119 -0.035185 0.009009 -0.030503 -0.006704 -0.017096 0.062425 -0.070086 -0.036887 -0.003972 -0.110662 -0.144144 0.07718 -0.007768 0.017025 0.058168 -0.012201 0.066397 -0.061573 0.018869 0.017025 -0.003476 -0.027949 0.073207 0.053345 -0.059871 0.036036 -0.07491 0.062708 -0.010924 0.056466 -0.058452 -0.005001 0.053628 0.039157 0.05221 -0.031638 -0.124282 0.015535 -0.04313 0.07264 0.026105 -0.090799 0.016954 -0.048805 0.027665 0.03107 0.000749 0.001951 0.114067 -0.046535 -0.016174
dolphin -0.043792 0.061105 -0.079775 -0.036663 -0.044471 -0.030892 0.005432 0.034796 0.094373 -0.001994 -0.040227 0.023933 -0.0387 -0.042434 -0.056692 -0.012815 0.022914 -0.11542 0.002026 -0.001422 0.028006 0.034286 -0.019604 0.127641 0.050242 -0.052957 -0.041585 0.059747 0.114741 -0.071628 -0.000504 -0.030213 -0.056013 -0.029873 -0.03174 0.021726 -0.023423 0.02563 -0.034626 0.035475 -0.065518 -0.027837 -0.039718 0.140541 -0.072647 -0.033268 -0.075023 -0.039888 0.00662 0.040397 -0.002567 0.083849 0.142577 -0.050581 0.103878 0.022405 0.004901 0.025291 0.054315 0.009972 -0.068573 0.05771 0.011712 -0.066197 -0.020029 -0.054315 -0.042264 0.028515 -0.070949 0.020793 0.074004 -0.050242 -0.015106 -0.061784 -0.026139 0.009378 0.01307 0.007553 0.04481 -0.005432 -0.021047 -0.084528 0.000504 -0.066197 0.064839 -0.024612 -0.027327 -0.062123 -0.010184 0.030722 0.03853 0.073326 -0.111346 -0.03225 -0.07672 0.038021 -0.007299 0.078757 0.013409 0.034117 0.135788 -0.05126 -0.019435 0.042603 0.01621 0.029194 0.07027 -0.114062 -0.031401 -0.042773 -0.052278 0.013409 0.004201 0.084189 0.049563 -0.005432 -0.098446 -0.058728 -0.01256 0.016804 -0.005686 0.028176 0.051599 -0.018416 -0.091657 -0.140541 -0.032589 0.039039 -0.017737 0.094373 0.030383 0.039548 -0.095052 -0.009378 -0.009081 -0.088941 0.027327 0.040906 -0.076381 0.037342 0.048544 -0.071628 -0.028176 0.093015 0.018331 0.029025 -0.086904 0.042264 -0.020283 -0.054994 0.054655 0.057031 0.022405 0.047526 0.018501 0.026818 0.024781 -0.004604 0.033777 0.024612 0.084189 0.028346 -0.019859 0.005113 -0.004392 -0.023423 -0.071968 0.050581 -0.056013 -0.046507 -0.075362 -0.016379 0.073665 -0.01621 0.003968 0.06416 0.015276 -0.069591 0.009632 0.014343 0.028346 -0.015022 -0.011542 -0.000371 -0.058389 -0.049902 0.143935 -0.058049 0.065857 -0.076041 -0.149367 -0.038021 0.042603 -0.135109 0.003501 0.127641 0.021896 0.118136 0.041585 0.029194 0.079775 -0.068233 -0.020368 0.014682 0.017143 -0.006068 0.021896 -0.039039 -0.050921 -0.022235 -0.033777 0.048884 0.011033 -0.041585 0.026648 0.068912 0.192819 0.025121 0.016974 -0.033268 0.053976 0.131714 -0.101841 -0.079097 -0.029194 0.044131 0.058389 0.091657 -0.022744 -0.043113 -0.001634 0.006577 -0.005474 -0.191461 -0.03836 0.014937 0.099804 -0.035475 0.013579 -0.078418 -0.009335 -0.019435 -0.068912 0.004031 -0.036154 -0.001368 0.007893 0.06382 -0.018331 -0.061444 -0.010311 0.030722 -0.0258 0.00261 0.017483 0.024442 -0.020283 0.053636 -0.007299 -0.005262 0.078418 0.126962 0.00096 0.007426 -0.048205 -0.015191 -0.135109 0.031231 0.088262 0.119493 -0.075702 0.015106 -0.112704 0.073326 0.024272 0.052957 -0.043452 -0.05737 -0.066536 -0.097088 0.000339 -0.007002 -0.026988 0.019944 0.034117 0.064839 0.035475 -0.04515 0.037172 0.091657 0.082152 -0.032929 -0.090978 -0.063141 0.087583 -0.002737 -0.042264 0.026648 -0.017398 0.014427
elephant 0.005809 0.091242 -0.080474 0.034995 -0.008607 -0.031028 0.06914 -0.010626 0.021252 0.005844 0.030886 -0.032728 0.026211 -0.106543 -0.06914 -0.022952 -0.078774 -0.033436 -0.07084 -0.052988 0.032161 -0.040237 0.11051 -0.036837 -0.009988 -0.00843 -0.137146 0.034428 0.093509 -0.081608 -0.011405 -0.032445 -0.072257 0.002444 -0.064606 0.00278 -0.013743 0.047321 0.06659 0.035278 -0.07424 -0.012114 0.071973 0.07084 0.011547 -0.048171 0.014026 -0.03627 0.098042 0.008111 -0.058655 0.022385 -0.006057 -0.088975 -0.038254 -0.021677 0.034287 -0.070557 0.149614 0.020827 0.017143 0.021252 0.004569 -0.07424 0.023519 -0.115611 -0.03712 0.021819 -0.056389 0.016506 0.088408 0.014593 -0.051855 0.013176 0.006871 0.029469 -0.017639 -0.06914 -0.087275 0.095209 -0.003772 -0.015372 -0.009138 -0.022952 -0.076507 -0.014239 -0.024794 -0.044487 0.058372 0.024086 0.063189 0.096342 -0.022669 0.06744 -0.021677 -0.052705 0.057522 0.059789 0.073107 -0.054405 -0.003878 -0.042221 0.041087 0.0017 0.03712 0.025219 0.025786 -0.051855 -0.007438 -0.064606 -0.14168 0.012043 0.017356 0.034995 -0.050155 0.002922 -3.9e-05 -0.153014 -0.002426 0.046188 0.003772 0.006978 -0.086708 -0.052988 -0.117311 0.043354 0.111077 0.023519 0.095776 -0.023235 -0.006942 0.076507 -0.042504 0.081608 0.003577 0.010413 -0.055822 0.086141 -0.016364 0.051571 0.021535 -0.138279 0.033295 0.10711 0.095209 -0.032445 -0.030178 0.051855 0.039387 0.023235 0.07254 0.00843 -0.036837 -0.001213 0.07424 -0.024369 -0.035562 -0.103143 -0.025927 -0.088975 -0.024794 -0.038537 0.107677 -0.027486 -0.017781 -0.005065 0.083874 -0.050721 0.001169 0.056105 -0.035562 0.089542 -0.028336 0.079341 -0.083308 -0.041654 0.056105 0.048454 0.042221 0.011547 -0.098042 -0.041654 -0.005738 0.054122 0.049871 0.019977 0.047321 0.028478 -0.013389 0.095776 0.03202 -0.056955 -0.027769 0.07594 0.019127 -0.004233 -0.009847 -0.046188 -0.053555 0.024794 0.035845 -0.10881 -0.026636 -0.052138 -0.020402 -0.002834 0.109377 -0.033011 0.073673 -0.055255 -0.113911 -0.006624 0.046188 -0.164349 -0.049588 0.062622 0.102576 -0.012184 0.049305 0.041937 0.039104 0.135446 -0.019693 -0.049871 0.031595 -0.01013 0.009493 0.00464 0.090675 -0.029611 0.003914 -0.049871 -0.090675 0.067156 -0.087275 -0.039387 0.019835 -0.003737 0.045621 -0.055538 0.032303 -0.10541 -0.03287 -0.077074 0.03712 -0.022385 -0.005632 0.021252 0.066306 -0.007899 -0.087841 0.079907 -0.030745 0.026211 0.055822 -0.056389 -0.099743 -0.04052 -0.088975 -0.034428 -0.04052 -0.024227 0.10371 0.03882 0.009776 0.044771 -0.061772 -0.028619 -0.024652 -0.005632 0.046471 0.047321 -0.031595 0.066873 0.061206 -0.026211 -0.010272 0.005313 -0.071407 -0.046188 0.105976 -0.062906 -0.019552 0.002586 -0.046471 -0.017568 0.014593 -0.066023 0.14508 0.027486 -0.082174 -0.005278 0.041087 -0.070557 -0.015231 0.057239 -0.025786 0.095776 -0.107677 0.059789
flatfish -0.030275 0.018008 0.021271 -0.046457 -0.061072 0.006688 -0.064204 -0.01305 0.000538 0.066814 -0.073078 -0.004665 0.007177 -0.075688 -0.013115 0.018008 -0.004959 0.036017 -0.014942 -0.074122 -0.063682 -0.081429 0.06055 0.072034 0.010896 -0.081951 -0.006851 0.101787 0.040976 -0.001362 -0.111704 0.084561 0.014159 -0.014355 0.013963 0.016247 -0.044369 0.085605 0.033015 0.042803 -0.044108 0.083517 0.015268 0.023359 0.02897 -0.051415 0.106485 0.002887 0.024925 -0.030406 -0.078819 -0.062377 -0.005383 -0.105441 0.064204 -0.022184 0.038366 0.02623 -0.046979 -0.140936 -0.035234 0.016377 -0.097611 -0.132062 0.03419 -0.055069 -0.081951 -0.042542 -0.034973 0.03941 0.020227 -0.030275 0.025708 0.02375 0.005644 -0.050371 -0.11588 -0.038105 -0.03419 -0.059506 -0.009591 -0.050632 -0.051676 -0.074122 0.099177 0.044891 -0.006427 -0.030536 0.052981 0.009004 -0.035495 -0.043847 -0.031971 0.095523 0.034451 -0.031058 -0.012593 -0.039149 0.057157 0.010896 -0.005416 -0.052198 0.076732 -0.091869 0.034451 -0.008417 0.055591 0.052981 0.022706 0.044369 -0.088215 -0.072034 0.029623 0.105441 0.032363 -0.019183 0.013115 0.029231 0.009983 -0.086127 -0.017356 0.062899 0.029231 -0.117968 -0.003295 -0.043586 0.037583 0.078819 -0.143023 0.038888 -0.003409 -0.034712 0.001158 0.005677 -0.032885 -0.023228 -0.048022 -0.020357 0.100221 0.087171 0.045413 -0.000487 -0.011223 0.039932 -0.019966 0.049849 -0.044891 0.066553 -0.078298 -0.004469 0.074122 -0.070468 -0.259948 0.070468 0.020749 -0.038627 0.062377 -0.016051 -0.04202 0.066814 -0.01181 0.025055 0.074122 0.001721 -0.046979 -0.06838 -0.063943 -0.034451 -0.100221 0.042281 -0.069946 0.016442 -0.013245 0.040976 -0.164947 -0.066292 0.032885 -0.003295 -0.032754 0.036278 0.078819 -0.085083 0.027143 -0.029884 0.001745 -0.025708 0.041237 -0.00933 0.046196 0.085083 -0.055852 -0.038627 -0.024533 -0.006721 -0.022706 0.077776 0.060811 0.027926 -0.013441 -0.009722 0.028579 -0.050893 -0.024272 -0.031449 -0.052459 0.028187 0.089259 0.015529 0.034451 0.018791 -0.048544 0.013898 -0.124232 -0.013311 -0.036278 0.006721 0.039149 -0.000542 0.077254 0.021401 0.049849 0.053242 -0.016181 0.017617 0.020357 0.00086 0.040715 0.043847 -0.015072 0.021793 0.079341 -0.112226 0.020488 -0.092391 0.007732 -0.041498 0.007765 0.006851 0.015203 0.072034 0.090303 -0.111704 0.001313 -0.062899 -0.036278 -0.083517 -0.008221 0.046979 0.077776 0.060811 -0.067336 -0.214013 -0.015464 -0.013637 0.035495 -0.082995 -0.004029 0.037583 0.016703 0.003572 0.086649 0.060289 -0.048805 -0.03941 -0.036539 0.021662 -0.050371 -0.0736 -0.015529 -0.072034 -0.103353 0.003116 -0.053242 0.078298 0.03419 0.11588 -0.105441 0.038366 0.012136 -0.030406 0.038888 0.010374 0.096045 0.056635 0.058984 -0.025186 0.010374 0.040976 0.027926 0.129452 0.021793 -0.100221 -0.056113 0.000795 -0.009591 -0.046979 -0.032363 0.019313 0.0736 0.022054
forest 0.014685 -0.0062 0.028228 -0.029371 0.044709 -0.005874 -0.064289 0.010117 -0.032634 -0.022517 0.045361 0.029534 -0.168391 -0.082238 0.055478 -0.060699 0.010524 0.043403 0.00824 0.097249 -0.114871 -0.02986 -0.041282 0.013869 0.0731 -0.005425 -0.093333 0.019336 0.115524 0.06331 0.043077 -0.009709 -0.029371 -0.08028 -0.045361 -0.098555 -0.035571 -0.006282 0.060373 -0.000989 -0.078974 -0.140326 -0.063963 -0.101165 -0.047972 -0.103776 -0.050583 -0.030839 0.06331 -0.052214 0.05352 0.011911 -0.077995 -0.065921 0.001188 -0.09007 0.029371 -0.11683 -0.019825 -0.035571 -0.040792 0.083543 0.070163 0.007057 -0.071468 -0.018357 0.02317 0.034266 -0.045035 -0.073753 -0.009015 -0.055151 0.058088 -0.09986 0.063963 0.001662 0.009994 -0.121398 0.063636 -0.013462 -0.072447 -0.011096 0.04993 -0.009872 0.12662 0.018193 0.008403 0.00669 -0.062657 0.007791 -0.054825 0.031329 0.025944 -0.039813 -0.0793 -0.114871 0.026597 -0.058741 -0.049604 -0.038345 -0.009056 -0.071142 0.000505 0.019988 0.11683 -0.039324 0.058088 -0.078321 -0.036713 -0.055478 -0.127925 -0.01289 -0.030513 -0.012319 -0.00414 -0.152074 0.067226 -0.044056 -0.067226 0.052541 0.041445 0.032144 -0.107692 -0.013869 0.014767 0.080932 -0.012075 -0.060373 -0.006812 0.052214 -0.062984 -0.015827 -0.093986 -0.114219 0.025291 -0.056457 -0.144895 0.040956 -0.018928 0.030676 0.064289 -0.080606 -0.001989 -0.067226 -0.000841 -0.000612 -0.047972 -0.011259 0.040303 -0.00771 0.025128 0.005956 0.01338 0.101165 -0.077016 -0.078974 0.068531 -0.030513 -0.061352 -0.016235 0.173613 0.025291 0.006445 0.061025 -0.019336 0.098555 0.004936 0.02317 -0.094638 0.050256 -0.0731 -0.0041 -0.002203 -0.066573 -0.018275 -0.013054 -0.002366 0.016888 -0.032797 -0.025944 -0.077669 -0.034102 0.11683 0.01028 -0.034266 -0.054825 0.038019 0.025128 -0.00259 0.012646 -0.059394 -0.05613 -0.026433 -0.018438 -0.035408 -0.077016 0.055804 -0.001438 -0.030676 0.045688 0.114871 0.004283 0.105734 -0.013543 -0.014114 -0.065921 0.15338 0.065594 -0.027086 0.051562 -0.059067 -0.005262 0.055478 -0.001601 -0.010524 0.074079 -0.015909 0.041445 0.009709 -0.044382 -0.006772 0.061025 -0.0793 -0.025781 -0.021375 -0.027902 0.038182 -0.003753 0.065594 0.056783 0.043077 0.079953 0.003467 0.013217 0.017296 0.057762 0.006608 -0.044382 0.023986 -0.088112 0.002774 -0.059067 0.000301 -0.107692 -0.036876 0.008036 0.023496 0.073426 -0.023007 0.057436 -0.055804 -0.043729 0.066573 0.013298 0.051235 0.045361 -0.053846 -0.128578 0.052867 -0.025781 -0.020233 0.047646 0.058415 0.022028 0.09268 0.05613 -0.105081 0.01183 -0.064615 0.030513 -0.009056 -0.027739 0.019907 0.007751 0.021865 0.027086 0.044709 -0.099207 -0.015093 -0.01958 0.070489 0.012809 -0.013135 0.047319 0.024802 -0.024475 0.046014 -0.012646 0.048625 0.045361 -0.012727 -0.090722 -0.059067 -0.006527 0.053193 -0.095944 -0.073426 -0.038345 0.036713 0.086806
fox -0.045363 0.031627 0.024218 0.039218 -0.048074 -0.067231 0.054941 -0.008133 0.050604 -0.018073 -0.021597 0.030362 0.027651 -0.006642 0.012651 0.020784 -0.095425 0.04211 0.039218 -0.01988 0.000808 0.013012 0.008991 0.023675 0.127956 0.051688 -0.050604 -0.016175 -0.001079 -0.010889 -0.023495 -0.0075 -0.002462 -0.014097 0.011024 -0.007907 0.151089 -0.024941 -0.009127 0.026567 0.012651 -0.096148 -0.063616 0.002621 -0.112052 0.05458 0.023675 -0.004631 0.027109 -0.001412 -0.086388 -0.041568 -0.055303 -0.000466 0.063255 -0.048797 -0.051327 -0.010618 -0.086388 -0.00253 0.065062 0.038857 -0.117835 0.025483 0.006597 0.075545 0.021326 0.009036 -0.018434 0.048797 0.044459 -0.007545 0.041748 -0.014368 0.040845 0.01482 0.026206 -0.133739 0.016808 -0.05964 0.011431 0.00305 -0.120004 -0.097593 0.041206 -0.091449 -0.00872 -0.006371 -0.01988 0.016717 -0.075183 0.01229 -0.066508 -0.062532 0.093256 0.016446 -0.035604 0.037953 -0.054941 0.059279 -0.006732 -0.100485 0.062894 -0.031808 0.005783 -0.018254 0.036869 -0.11422 0.021326 -0.04211 0.026025 -0.051327 0.085304 -0.013284 0.028374 -0.01744 0.041568 0.013374 0.070123 0.040122 -0.074822 -0.038676 0.075906 0.023043 -0.127956 -0.133016 0.040845 0.122895 -0.015543 -0.015633 -0.060725 -0.030182 -0.115666 -0.046266 -0.011386 0.002767 0.023495 0.028555 0.017621 -0.040122 0.03723 -0.065424 -0.014458 0.051327 0.09687 0.041568 0.133016 -0.02232 0.040122 0.020784 0.041568 -0.066147 0.041387 -0.096148 0.008946 -0.00427 0.093256 -0.09181 -0.036326 0.101208 -0.002508 0.102654 0.01482 0.010437 -0.04464 -0.048074 0.027471 -0.01744 0.156872 0.050604 -0.038314 -0.061448 0.001683 -0.135185 0.012832 0.063255 0.083497 -0.070484 -0.019157 0.035965 0.017802 -0.120004 0.064701 -0.073014 0.049158 -0.031266 0.006551 -0.043917 0.055303 0.000565 -0.031266 0.056387 0.017531 -0.024579 -0.063255 -0.017802 -0.067592 -0.097593 0.035784 0.070484 -0.037049 0.059279 0.0347 0.104823 0.03723 -0.011838 -0.026748 0.156872 0.011747 0.036869 -0.066508 -0.044821 -0.024398 -0.004857 0.008133 0.012561 0.040845 -0.030724 0.022139 -0.054219 0.052411 -0.006461 -0.055664 0.018525 0.021507 -0.070846 0.12145 0.100485 0.020151 0.024037 -0.05205 -0.139522 -0.013645 -0.018796 -0.032531 0.115666 0.009082 -0.066147 0.079521 0.073376 0.086027 0.000672 0.018886 -0.068315 -0.028917 0.114943 0.079159 0.099762 -0.050965 -0.051688 -0.006913 -0.067231 -0.016085 0.043556 -0.003728 0.066508 0.026748 -0.017079 0.056387 -0.026386 -0.014097 0.011476 0.062894 0.070846 -0.043194 -0.01229 -0.091087 -0.087473 0.106991 -0.035061 -0.069038 0.054941 -0.003682 -0.038495 0.119281 -0.052773 0.034519 -0.079159 -0.019248 0.034519 -0.033796 0.041387 -0.106268 0.080966 -0.032712 -0.065424 -0.046989 -0.062894 -0.028736 -0.030362 0.037592 -0.056387 -0.038495 -0.01491 0.043375 -0.16121 -0.015543 -0.058195 0.014006 0.010527
